,CC_1,CC_2,CC_3,CC_4,CC_5,CC_6,CC_7,CC_8,CC_9,CC_10,CC_11,CC_12,CC_13,CC_14,CC_15,CC_16,CC_17,CC_18,CC_19,CC_20,CC_21,CC_22,CC_23,CC_24,CC_25,CC_26,CC_27,CC_28,CC_29,CC_30
1_reference,0.0131660737653708,0.0314003743530949,0.0298800370139484,0.0089882356590157,0.0254900426053438,0.00348893629359806,0.0213304006861635,0.0145959613184482,0.00643914368011295,0.012460725661767,0.0408191172246412,0.00840201883702589,0.0590033536455404,0.0148098777558092,0.00555354786117243,0.035635036867909,0.00183223069003893,0.0549097838618506,0.0027350358970967,0.0211640222398012,0.0334277885529019,0.0176780016412841,0.0252406146840661,0.0442311093595347,0.00151844639665354,0.0219881712678451,0.000236483705267852,0.00814153348832694,0.01066653849352,0.0268168698504615
2_reference,-0.054101049275628,0.026835432576167,0.0272927812083284,0.0246050800330415,0.0172127937944877,0.0582468361953341,-0.0287106375881414,0.0278276542903543,0.0138324912785285,-0.0744999071025783,-0.00698328708338074,-0.00608509430674094,0.0177314578646232,-0.0126907026354162,-0.0250627488469703,-0.00569264321274826,-0.0378304239692026,-0.0151640550002636,0.0389873173692577,-0.034212945181068,-0.0267178228708798,-0.016971641507423,-0.0221693550857049,-0.0133546496741311,0.0172159870141206,-0.00149945947571796,0.00792732983216762,-0.0346522390659612,0.00295726069743052,0.00141781499188591
3_reference,0.0256996163341121,-0.00333905509878843,-0.0434925933651274,-0.0384256767846631,-0.00440615385474423,0.0104853031522377,-0.0025459106314154,0.0350324775563992,-0.0650060028690725,-0.00620757417628471,0.00553430242746818,0.0337886427871391,0.0355844806236939,-0.0207962835385876,0.0462044681619908,-0.011793888569428,-0.00964939849189037,0.0117921318841415,-0.0083323728890242,0.0318433229000306,0.00959141034634363,-0.025960880764446,0.00114935276039948,0.01960913572008,-0.0381098975102794,0.0350009279151282,-0.0273110858678368,0.025082773894465,-0.0138221958578131,-0.0173318234422704
4_reference,-0.0265725683457929,-0.00864702538693886,0.00221543783535414,0.0236354949794064,0.0142686257398084,0.0607265584713234,0.0216088408453513,0.00194882344059028,0.00666737465562145,-0.0339302396460175,-0.0363835758588939,0.0387605692605936,-0.00277345419773324,0.0270788856339259,0.0105426077743961,-0.00720141326194076,-0.00845333054370869,0.00494274112535081,-0.0101995592860015,-0.0371576366452552,0.0324542766422046,-0.0199144912196989,0.00167212944236457,0.000765882439496207,0.0135835757635954,-0.015948946588758,0.00744325932405406,0.0383670499281948,0.017742141585545,0.0251614706181934
5_reference,0.0291656519873281,0.00347934344893533,-0.0214459133499657,-0.0664772838021506,0.00776967047569414,0.0185185587219535,0.0579859768497904,0.0208796778616845,-0.0194016065473764,-0.0229176255671004,0.0111158785389816,0.0280205651719509,0.0199244018275669,-0.0294962174292421,0.000233081486668649,-0.0260983218614468,0.0112791487719271,-0.016420904595579,0.0107815755581994,-0.000986905135675901,0.0394194612068881,0.00948875397477535,-0.00121782541418565,0.0306276769639861,-0.0198697582732948,0.00910282002763388,0.0280496350549589,0.0253339646401714,-0.0336403118341001,-0.0045919362239258
6_reference,0.00496832524843437,0.0254358701724313,0.037383630500567,0.00248106833907539,0.0105368507372552,0.0121341927422138,-0.00496545693813094,0.0500162160894353,0.00632828810970285,0.0429378959912899,-0.0417406392011881,0.00522668109415139,0.0319671036262315,0.0112904756277597,-0.0337191283222986,-0.0103500276069142,0.0186037947303144,0.0206850214953985,-0.0295004245820002,0.0546571809536171,0.00403973894198308,0.0512305199023135,0.00479120921135893,-0.00180137954486116,0.0321098906372043,-0.0140042152116574,-0.0324802504589343,0.0115635553147953,0.0506576726816281,-0.0216237976035265
7_reference,0.0239690636158536,0.0198595142509492,0.029333755604255,0.019270188388568,0.0110125664843029,0.00487020072611671,0.0746585467287497,0.0211975783121409,0.0211224508198558,0.026338501603407,-0.0461286487925222,-0.0158676698363814,-0.0209097066893294,0.0147952299507412,-0.0353326235432625,0.0186173043118246,0.0146421848784449,-0.0287060184944551,-0.0150757901317923,-0.0309518595921302,0.00873021120457537,-0.0256345954031575,-0.0801942243132925,0.018393460465843,-0.00123098264351257,0.0446565254275358,-0.0458580281105063,0.0337885214831672,-0.0337486485732625,0.0535240750386515
8_reference,0.022613082943156,0.0120756069428188,0.0218113663658778,0.00968865013686905,-0.00994905530995322,0.0115591530606804,0.00326633897200093,0.00643167628542279,-0.0164897124291942,0.0157839992861,-0.00627470628498465,0.00243686712892309,0.0251436975114388,-0.00662611366510368,-0.0294575500713114,0.015457564549502,-0.00229365106999022,0.0248449920723172,-0.0284443302847669,0.0533278008190385,-0.0134009136633849,0.000486134381776432,-0.0108146580902852,0.0051062156326258,0.0245220768422388,0.000352025004270095,-0.0123367209686733,0.00473101466113705,-0.00467306081621324,-0.0201750971475708
9_reference,0.0219351079535053,0.0133663835653291,0.00169187001475818,0.0288041327167947,0.0102973749348109,0.00729913800280142,-0.00244948511334018,0.0175244755449612,0.00570788754065752,0.00397189695322338,0.0416486781809534,0.0163282073466847,0.0419553214056449,0.00769491879580785,0.00994044113050002,0.0311906028088379,0.034184445639826,0.00362404277280959,-0.00739878509994185,-0.0187232804936597,-0.0114928454164775,0.0132117661494943,-0.00235095429826918,0.000632751487728289,-0.00307886701361387,0.0263961032164452,-0.00516634749373423,0.0515407023925779,-0.0187271978561354,-0.0227194534903561
10_reference,-0.0565559983404082,0.036635893865952,-0.00574419676165247,0.0239776628495958,-0.0154233064243453,-0.00138754942555705,0.0497818918277291,-0.00360677677951389,-0.0402602788038758,-0.0273514471151069,-0.0159452836042121,0.0164092887656091,-0.0325136961081588,-0.0194183987131798,-0.00773000319881315,0.00969814495003625,0.0202064968205907,0.0199709883182772,0.00301630225398328,0.00900108609552148,0.00879598147990298,-0.00946074656523902,0.0407419124083415,-0.0347208111047083,0.0279298997005336,-0.00895326259214651,-0.0226756197578794,0.00648767259966217,-0.00186392512031172,-0.0108608938020927
11_reference,-0.0596004846302423,0.0511308710294125,0.000472477498083689,0.0199899505774448,-0.0101139203856784,-0.0145402536453293,0.0263474471795306,0.0133492389098892,-0.0394158125635646,-0.0278618885457795,0.00403420384885681,-0.00555514941317094,-0.00980688744380614,0.0108974054510768,-0.0181200954884357,0.00131959013720957,-0.000435140474849948,0.0049358156830656,0.0143422832599619,0.00302469969722616,0.0213308387535629,0.0109150881035007,0.0211464498875357,-0.0223189731521744,-0.00325514115899055,-0.00773906912926768,-0.00901154953605223,-0.00653434566225588,0.0202099152632516,0.00818309654961162
12_reference,0.0213109157637048,0.0144688560880512,0.00756722845484141,0.0213584078486112,0.0198025492269912,0.00937872158908077,0.0310019185101421,-0.02040424188011,0.000234045681341227,0.00562756110265082,0.0185782238486409,0.0158371198474824,0.0374193799747682,-0.0126133944212903,-0.0090461384219329,0.00235746540873706,0.0110225459842926,0.00582437649569424,0.0398445975253595,0.00115840390429185,0.0257337393195444,-0.00674617246929392,-0.0494276700521405,-0.0149500343230698,0.00734141499271385,-0.0284928659060359,-0.0264961794456685,0.00845456285490854,-0.0110938381060902,-0.0292122639646645
13_reference,0.0257074128532884,0.0187622474534573,0.0238437149314663,-0.0018489951454823,0.0274905606498537,0.000495658999174881,-0.00374715705663542,-0.0105896042278504,-0.0125397917061712,0.0268223060560542,-0.0240352284546687,0.0213909657741745,0.014805521000198,-0.0217403322066822,-0.0424666459978194,-0.0207771186625701,0.00971559837064677,-0.00453206549356297,-0.0434681669258551,0.0213885575615812,-0.00620160889348868,0.0155320293373891,0.0341860649018697,0.00409245614446215,-0.0895161539619313,-0.00418005445370872,0.00206428107345643,0.0222834961644905,-0.0130510797827492,-0.0421689993155897
14_reference,0.0203908216726046,0.000841365778689423,-0.0276268728907303,-0.030852944591897,-0.0183225595180007,-0.0134241961028517,0.0181157619476288,0.0130687531111333,-0.0609232249874196,-0.0252912619880824,0.00255967689702206,0.0319825596989264,-0.0127761721713635,-0.011138936148626,0.0204696366094921,0.00100414445287347,-0.0108929781235144,0.0278279134392571,-0.00762145407067993,-0.0476740943153789,0.039406801950719,0.00545572062724883,-0.0127000467151005,0.0140916067529469,-0.00187647443436677,0.00327718930609964,-0.026520160071823,-0.00336598346653049,-0.0129167882947473,0.0134289325678772
15_reference,0.0160830392779781,0.00498579422574593,0.00898196991605009,-0.0118396488260156,-0.0346096542568157,0.0152000181014391,0.018085111244151,-0.00430186621516668,-0.00570572355636343,-0.0292435544468119,-0.027616117489969,-0.0241635147719825,-0.000337447779255481,0.00458808554929429,0.018441638134312,-0.0460066087875825,-0.0401646178848477,-0.0626558340335198,-0.0150834707130681,0.0131215264825453,-0.00474085540724454,0.00329548599580944,0.0331162601332906,0.0105041640080405,-0.013383442754359,0.0723197000438288,-0.0109011430546509,-0.00107287768963241,-0.0108242587378329,0.0560292696387582
16_reference,-0.0405819698947898,0.0300203265745407,-0.00458844619069115,-0.0312830185174427,-0.0219019080323142,-0.0549101790283518,0.0262906311790678,-0.00552216700909458,0.00737547868378074,0.0293533284600806,0.0186154565414972,-0.00930065727269897,0.000405132099096625,0.0115231861378252,-0.00416387607552357,0.00689933555337345,0.0131730235513815,0.0141758971198816,-0.0165658209898934,0.0146354506954925,0.00829904996892513,0.0292797825822032,0.00217672362189801,0.0398780169049787,-0.00629810361847566,-0.00266099680805061,-0.0274426412171968,0.00872692677823987,-0.000874257254195333,0.00604630514999132
17_reference,0.0208687304945094,-0.00484328352714977,-0.0130147747015633,0.010293095420699,-0.0622061524962969,0.018455964714837,0.0118462526266611,0.0350684307353394,-0.0208625722472189,-0.00160974561996746,-0.0290606830930281,-0.0183866091183038,-0.0188384396417604,-0.00257642844299841,0.0247225628291645,-0.0391044267129152,0.0267786772042287,-0.0286378163083896,-0.0416383933997878,0.0174720989398922,0.00339966356830512,-0.0392133499128713,-0.0346403572140873,-0.000586410367307824,0.0192694137633945,0.0317611355586716,-0.0628598057298925,-0.00507624707535459,0.0148211169762931,0.0321984845350166
18_reference,-0.0081809464392931,-0.0270116104741766,0.00105641599474193,-0.00112117228107298,0.00194894238893923,0.0296255675417209,-0.00587890151974555,-0.0154454616580416,0.0442868873572384,-0.0117388049350275,-0.086337695644262,0.0327569529816952,-0.00920743146948564,-0.000768327595551507,0.0680979930753533,0.0438293047192641,0.0270044273741672,0.0324412415812629,0.00508041801946265,0.0290060169077916,0.0527352278577921,0.020930950026567,-0.0119337487188614,0.00747909537584411,-0.00639579696936737,-0.0205030064991974,0.0038960333004717,-0.021010510220055,0.0199715115833075,0.00188925558787587
19_reference,-0.0507282652525621,0.0408809649356787,-0.00554132540035134,-0.00436334247115551,-0.0127532826134396,-0.0380428536666072,-0.00176475260369778,0.0108869090413118,0.00436941796944991,0.0129153671643265,-0.0106312420849617,-0.0270967648486943,0.0190794902270265,-0.00335464308165596,-0.00502869205266575,-0.0170694063006984,-0.000188033213782651,-0.0265828940438629,0.0132105495749529,-0.0156609188772085,0.0175053059528629,0.007599780920043,-0.00845189126978109,-0.022808598552429,-0.0060593076192094,-0.00544101429621148,-0.0288814622767702,-0.0178997835487607,0.029944477866023,-0.00868852258180647
20_reference,-0.0558843603605683,0.0347311153449954,0.00703953787600866,0.0105880357521855,0.0118997208951742,0.0123334160209763,0.018615817725881,0.0235869477306088,-0.017260193160668,-0.0164339383086805,-0.0080547260761225,0.00842262004196655,0.0147376879054651,-0.00580675200940132,-0.00799442659016182,-0.00442049239590425,0.00816361037938942,0.0204347079525983,0.00692726510120933,-0.0361808778525821,-0.0160757316491579,0.0188182903398505,0.0176834268603566,-0.000486539066198516,0.0235330695521603,-0.0258245436748275,0.00501031044595198,-0.0137959083925034,0.00867385768911713,0.0161688784512874
21_reference,0.0209537049572503,0.0161362402534139,0.0359920699078139,0.0157271370344845,-0.0281246490164243,0.0218307199035775,0.0270164113720006,0.0290142610058962,0.0104463132556766,-0.0144434769377492,-0.0262717868133388,-0.0343761155185324,0.0110500722826699,0.0240144766612771,-0.0183010844155534,-0.00307754281277352,-0.0215232362701734,-0.0102443884691461,-0.0358097795798103,0.0228146611874009,-0.0120631995819592,0.0175794929732514,-0.0270058107076963,-0.0139883628174239,-0.0225693422815198,0.0206691405411924,-0.00843537323965532,0.00843885809591792,-0.034806876937892,0.060704110093726
22_reference,0.0158125873553167,0.0149422697290966,0.0108429946575172,0.0475280889800601,0.016809246221791,0.0273769216296797,0.0187059819238477,0.0341240381916468,0.00581324106055377,0.0404108151689958,0.0151426753467346,0.00874270196515879,0.0431908430239078,0.00265953981513967,0.00150621970974155,0.0228017689466237,-0.00729922788146766,0.00849450995530144,-0.0339359533854747,0.0384599195829862,-0.000814434260359426,0.0402532113299674,-0.0117170599527096,-0.00452784946184764,0.0187568836837047,0.047874055542486,-0.0216704157675721,0.0227984467860831,0.0254257401306633,0.0244268886014642
23_reference,0.00483397165614868,0.0027818843302027,0.00189893179778014,-0.016281366353591,-0.0759489130329608,-0.0186454198238416,0.00100933267287932,-0.00824091097331923,0.00823324855969162,-0.0400808350506566,0.0147079535596205,0.00116819618083466,0.0218314904911666,-0.0189373432230039,0.029883172019191,0.0271846421938091,-0.00264911790566428,-0.0171414685471888,-0.0218795241258323,0.0175861494912595,-0.00700367336392564,0.0228319702114097,-0.0492247506617776,0.00350942314308387,0.0428718218957679,0.00808630586761261,-0.0244109829961519,-0.0374113948509933,-0.00882152655010544,-0.0230089579306192
24_reference,0.0356442274620778,-0.00583147334433047,-0.0158391338146389,-0.0550230050295055,-0.0215098117463088,0.0312603556136129,0.00183268685144488,0.048400009646519,-0.0942707102851905,-0.0037911166971461,-0.0168951429937841,0.0175993776057491,0.00433672920160863,0.0148341962729922,0.0107740168439456,-0.0223498354152283,0.0164543255334655,-0.00761676094041846,-0.0214412759833071,0.0239032973644366,0.0238073191486442,0.00491832621999015,0.00544162118123485,0.015924407934307,-0.0170272670876403,-0.00489214095959948,-0.018320535271072,0.00574105374237576,-0.0147906118545407,-0.0152695394441945
25_reference,-0.0141683690797897,-0.0255097188154031,-0.00127391218146932,-0.01478265607329,-0.00524464780888473,0.0244634560442461,0.0437389959277848,-0.0285706394139289,0.0494296167759982,-0.0251932590419589,-0.0793431709796584,0.0290632416078001,0.0131610447265787,-0.00345757671720772,0.0531663463412011,0.0317254878600575,0.0199481821320979,0.0181645490031606,0.00487694609941354,0.0209057691665831,0.0427931397848246,0.00395457944888401,0.00784162850805216,0.00348518591753878,-0.0292274563729253,1.31437924745216e-05,0.000156882707224564,0.0115065377966669,0.0110280566204268,0.00868474463327489
26_reference,-0.0195761516695423,-0.0720370663764564,0.044283432343645,0.0132382472590909,0.038974939947343,-0.00982510803227285,0.00452155399529657,0.00889355898377854,0.00264740362378688,-0.0115591124819789,0.0240992341014824,-0.0149931772580332,0.0204253862602699,-0.00341082297990364,-0.00611947373970203,-0.0120254142925176,-0.0341271080040751,0.0159501077413347,0.0123174731852447,0.00303829940525979,0.00803380751183185,-0.00996645068523745,-0.0103930764008824,0.0133781076314965,0.00198912809818135,0.00709544141179649,-0.00242446683785127,-0.0137541432294787,-0.0309118944643868,0.00646713212401613
27_reference,-0.0508222349011762,0.0289406372143077,0.0122637272176776,0.0167164491962789,-0.00515398054275065,0.00830313798112246,-0.0122554471599072,0.00829132534467517,-0.0136805720300293,-0.0444979376092317,-0.0246183131347541,-0.00922823632292776,0.0159475755826569,0.00401923565081797,-0.0112336671513169,0.0185139251678545,-0.0121095497621209,-0.0188357939674997,0.0143148861022372,-0.0486516048715691,-0.0257810065988112,0.0116578918398185,0.000443449954952512,-0.0309310821327862,0.00295757368999111,-0.0208100453528257,0.0441160348974863,0.00539188798366222,0.00860026948010526,0.041537476021566
28_reference,-0.0478171499292215,0.0331209745446244,-0.00226218316926896,0.00715814300546178,-0.00967582792066616,-0.0100126298919932,0.017907800544597,0.00224164952552055,-0.0269808027984295,-0.044987982762337,0.0111468580497741,-0.0023868008594038,-0.0148306481262669,-0.0477492484826763,-0.0100859292174976,0.0219717404457852,-0.0109166857754799,-0.00145224801192006,0.0523512956494221,0.0264101661814902,-0.0164477726337003,0.00978120392842108,-0.00770794563933961,-0.00391602767699133,0.0342718450960382,-0.0232281645629109,0.0080914462185679,-0.000376797507977837,-0.0235679175580503,-0.0177890470440555
29_reference,0.0218437349811139,-0.000182569165377299,-0.000820953148856494,-0.00501902192038559,-0.0649414844320141,0.0108928017742333,0.0372186359248815,0.0186973801713766,0.0176526247116032,-0.0363139133418144,-0.0330313122293915,-0.00349787309376345,-0.00545939527238011,-0.0112806724691211,-0.00453075953337097,-0.00262082134023514,0.0307016729797545,-0.00132190184385409,-0.0224652005360295,-0.0157641833102351,0.0081574813578172,0.00312685631552941,-0.046869332153273,0.00234045729006758,-0.00158904712695495,-0.0409084404936793,-0.0414249602076571,0.00394496633808894,-0.033118061104184,-0.0034461146757644
30_reference,-0.0527766059966655,0.0324281635551069,-0.017564277436697,0.00146402635819215,-0.000957880531946412,-0.0238187855374836,0.0261412879738842,-0.00611755334044486,0.0028303746939791,0.00427208690660809,-0.0140772074234198,-0.0294557860349735,-0.00178221631211744,-0.00651326271970689,-0.0201185771154957,-0.0118778326437355,0.0124234974964797,0.037630328357914,0.0149419404156595,0.0453236353714152,-0.011711321134494,-0.00426963930239941,0.0147395845971713,0.00886765285736509,-0.00964654949589475,0.00270914564210239,-0.00409022357379234,0.0193675949199064,-0.000236886040789205,-0.0390322614250386
31_reference,-0.0441943102917733,0.0341905540683919,-0.0132145050095638,-0.00213874314354092,-0.0181133234211828,-0.027442155096872,0.00330158621077975,0.0269951429390199,0.0202551415022725,0.04389877463361,0.000132846587916157,-0.0443166252113459,0.03247556472506,-0.0121094278128875,0.0189170968465666,-0.0120930046507225,-0.0216247621344779,0.00288737499219453,-0.00468426045627917,-0.00839870295175809,0.0240519405394204,-0.0290016522586988,0.0224291544510029,-0.0154984539668042,-0.00423755910357313,0.00261392659591339,0.0227346887692554,-0.0138697030500195,0.0018056598405208,-0.0161803923581895
32_reference,-0.0485845410714572,0.0256031594109301,0.0172606144271916,0.0141686974439083,0.011390622131216,0.030280273089294,-0.0255952450074804,0.0156070445322595,0.00267486309543862,-0.0343293061121191,0.0077963028637195,-0.00978830767910959,0.041487015190325,-0.00322648800086421,0.00360744840460887,0.0245943015224315,-0.0163522825007105,-0.008197653513469,-0.000749271747333447,-0.00360490872592174,-0.0279314259632025,-0.0337666565553806,-0.0290275428854885,-0.0502379909811969,0.0073047573761601,-0.0316880762251407,0.0182590023111057,-0.0260928146583164,-0.0120429522554519,-0.0116940901185146
33_reference,0.00247839733869362,0.0105789466988179,-0.0317049878960741,-0.0173602214241538,0.0278584251285725,0.031590573667148,0.0728838573274904,0.0189552902659,0.0836692495062965,-0.0273029649761971,0.023096790370993,0.00865653802042623,0.062004493602799,0.00130831571807309,-0.0125006533428495,-0.024259992949142,0.0166667957723053,-0.0191485494161331,0.0470807473461225,0.00171910112801409,0.00630454269129684,0.0174961434346816,-0.0152182764208083,0.0123228381558443,0.0390284543060193,-0.0537404197289019,9.95179501915078e-05,0.014409312243348,-0.0355459487252081,0.0188827599315029
34_reference,0.0171211288205246,0.00737552700105152,0.0111968540494079,-0.00472239368603395,-0.0263517985672213,0.00579082581595874,0.0271227491462425,-0.0469900692125101,-0.0206373087768258,0.00132000223476169,-0.00918413978874218,-0.0257520568437591,0.0257788747630239,-0.00681345436268555,-0.0196383718930271,0.0333077142637103,-0.0206090678739467,0.00352378269180461,-0.00539508839238752,-0.0283658287359547,0.00752546089391806,-0.00781619805644407,0.0127075745629532,0.0479189511218672,0.0121357801414053,0.0197064701988915,0.0136376739747014,-0.000706020412054505,0.00736029151162319,-0.0258856773299765
35_reference,0.00644783493161569,0.0218024535441462,0.0251560993342808,0.0090809280038196,0.0241806982269054,0.0314412445331392,0.02653546650763,-0.0049190677021041,-0.0179711599570141,0.0321292748735552,0.0081619585393804,-0.0257339415540631,0.0357345836391224,0.0348342793833892,-0.0502021953120065,0.0313382243838348,0.0201570866799633,0.0465440509718572,-0.0236891831800731,-0.00679020315054166,0.0251523569898296,0.0498311436541718,0.0241253425198315,0.031266055198319,0.00858842621917062,-0.0601290944427075,0.0331495006708937,0.000880952879076678,0.0332221814293025,-0.0152282558889214
36_reference,-0.0509345095886403,0.028365021372527,0.00142201931338292,0.00751830304633977,-0.0156487987873797,0.00712551313222894,0.0223144896861667,0.00249665072213948,-0.00674952613565104,-0.0393371143184736,-0.00497665628540257,0.00537738543543361,-0.000703031259145269,-0.000377249255146405,-0.0269034117336629,-0.0166535145418735,-0.00470393006285516,0.00387006862589081,0.0364414128523958,-0.0148349732150755,-0.0191270507546506,-0.00182267210138225,0.0237321116381571,-0.00685089564894012,0.021026322266522,-0.00801409471825526,0.00491732518957595,0.00720764671513706,-0.0103401608342121,-0.0208787484290221
37_reference,-0.0501222683340946,0.0368912786505956,-0.0254907037546995,0.00841784742118534,-0.0180620769707108,-0.0762776420575439,-0.00499581920709146,0.00463062554047467,-0.00478589859571836,0.0457114810760169,-0.00364511217737209,-0.00587188066506726,0.0312328493121262,-0.00350936950513613,0.0154477893994191,0.00634313432997151,0.00430435265508171,-0.0058330693674726,-0.00636372808646555,0.00938483026272242,0.0288035178872507,0.0220142193760988,-0.0157152234523515,-0.0199913592973632,-0.0152884713314295,0.0226211322313392,-0.010860477105238,-0.0124823240975168,0.00513398425540294,0.00646243797342859
38_reference,-0.0488949872603183,0.0338433164756643,-0.0034352035878577,-0.0195306008099512,-0.029126459901195,-0.0562421064149859,-0.0136057030219105,-0.0204575729713173,0.00373111356522614,0.0182584748719806,0.0101861268166244,-0.0385984448980943,0.013870066330312,0.00934528733402311,0.00020762881603515,0.0262767933469132,0.00377192771548206,0.0218350106509942,-0.00054690020440208,-0.00512827971704439,0.00730931977703865,-0.00227866604925251,0.0151057350541769,-0.0116301758033554,0.0152913616077089,-0.017997039527405,0.0123480159604088,0.0142527551700873,0.0139139746287242,-0.0254900363175622
39_reference,0.00991172984533616,0.00776424840961584,0.00124527012483838,-0.0274742990875312,0.00655625958407507,-0.00413151180017333,0.011766754782735,0.0275924547154901,-0.0117647864630876,-0.00994614657283712,0.0131314158120922,0.0257969744655033,-0.0464310248220732,-0.0039085537907362,-0.00751934562321465,0.00446414789696403,0.000274539327328457,0.0258658786962989,-0.00930180391335277,-0.0189248554432399,0.0372883875425247,-0.00212158106745998,-0.0247675016059124,-0.0104653905700809,0.0109286397937049,0.0162027347507472,-0.00961313801277605,0.0143288477259471,-0.0256164769672964,-0.00372835805829299
40_reference,0.0152166248596426,-0.000832927425634244,-0.00320479955903675,0.0023531989263469,-0.0673903159156776,-0.00238405834417755,-0.011917097249892,-0.0136481865173473,0.000920670323087165,-0.0409434440060678,-0.0155950913729605,-0.0237647679720371,0.00538754706315531,-0.0335715498623313,-0.0299604531716355,0.0259970024285707,-0.0190972475897383,-0.010256543910447,0.0066241967761459,0.00307714271214681,0.0182789303134314,0.0272348554485095,-0.045493761798023,0.0200756744524566,-0.016801482117828,0.00905743028255837,-0.0065405381122011,0.02987888032216,0.0132252904923901,-0.0047261916414021
41_reference,0.0177657542952672,0.00144339089044368,0.0212781636298207,-0.00774277079464036,-0.0346723160472626,0.0162545702400482,0.00680436772515223,0.0165131567699825,0.00843364893354679,-0.032633067228117,-0.0205180896648664,-0.00515319585848708,0.0663604823097784,-0.037159641657283,-0.0377172803287561,-0.000676367889869869,-0.018835439802368,-0.0421957864735678,-0.0266180908772005,0.0481315080931142,-0.0270447013099857,0.0267778723032762,-0.00422142073623787,0.0157499144141174,0.0113331793703902,0.0165317938513323,-0.0329531436479746,0.0200640400665389,-0.0160413493375574,0.0104043685123623
42_reference,-0.0462970275602016,0.0199920599597617,0.00812719498503118,-0.00188353409522047,0.0265662336592039,0.0343349338006063,-0.022580890852036,0.0182821220411562,0.0296131144698157,-0.014899894838274,0.0156927144792926,-0.00528449619908737,-0.0225590089150236,0.00241784098572356,-0.0261295151555603,-0.0127274608412274,-0.0296632804285397,0.0172329181440954,-0.0320901938361335,0.0251039216344107,-0.0239335735133894,0.000627244281350241,-0.00563584042996559,0.0510226553338426,-0.00509263622455903,0.00991429584308574,-0.0136844760959214,0.0173302895861442,-0.0178793309162013,0.00835415999419999
43_reference,0.0223499408657957,0.00499497848742285,-0.014501034039392,-0.0377442815001119,-0.00328973557356866,0.00165859944241301,0.0186363211521499,0.0417134708180368,-0.0630965294600669,-0.0244620498501034,-0.0222612145844689,0.037988636742762,0.0370207699161893,-0.000535376113743561,-0.000434435991648531,-0.00330789647362539,0.0133923841269273,-0.0343089762760002,0.0115705986589668,0.00697192931725139,0.034108946987518,0.0440394197797418,0.0060804154157717,0.0492587582191668,0.00340099645790972,-0.018659552503872,-0.0471831343621933,-0.0402160178475294,-0.0138720671797192,-0.0109708807204244
44_reference,-0.0204701117133004,-0.0725493186755364,0.0513117627346352,0.0125268080124796,0.0187524209668233,-0.044008799487675,0.0072244504097094,0.0188125848281243,-0.0129572988960135,0.00979086834054767,3.62729001944422e-05,-0.0366863627872554,0.00153211296179434,-0.00876728536718173,-0.0127036911066738,0.000392422578709204,-0.0111882929884525,-0.00687690983576241,0.0228423350162306,-0.00807871838229692,-0.0118287021721157,-0.00924002093625593,-0.0107129623058156,-0.0108988551546607,0.00134581780772836,0.00104500984368308,0.00248881218602389,-0.0103034929526024,-0.0105725382198583,0.0028452422955577
45_reference,0.0172335642022719,0.00961447250331572,0.00469409287139212,0.0163537221054505,-0.0541778645811601,-0.0308442886473982,-0.010712503010247,0.00270426745738082,-0.0219422099170767,-0.042915452361286,0.0190039861016104,-0.00912667057375929,0.0168607543208182,0.0100765698630475,0.0267774941050015,0.0187890678859417,-0.0464726300285626,-0.00874857299156744,-0.0190842628302993,0.0344134515115509,-0.0282476032723832,0.029834114459859,0.0112299708411173,-0.00744738475913657,0.0255812453110107,-0.0233182907980012,-0.0319884751622501,0.0436718002443569,0.0336576221980412,0.0110994676663441
46_reference,0.0139199704456139,0.0129949287949762,0.0218120092233261,-0.0117309150000672,-0.00164146135147288,0.0148057499050581,0.00976637949417904,-0.0128438421604177,0.0144689959227683,0.00544004641872573,-0.0250590140376655,0.00877560195388557,0.0208627854638335,0.0151869948027829,-0.0123967717828607,0.0223882018524081,0.0327156965013541,-0.00856744553958535,-0.0147277396864704,-0.0207567893767066,2.97656372337177e-05,-0.030021410701878,0.0184678075089359,-0.00510348870417802,0.00995565353168194,0.00754854719331134,0.015627171862399,-0.017196263180976,-0.0460715296845777,-0.0465199640631196
47_reference,0.0109483852871378,0.00593703756762982,0.00372342137601721,-0.0379160072594629,0.0168488792435907,0.0116421488817988,-0.00274345695623972,-0.0288165184338108,0.00414946088603655,-0.00343763361374436,0.00199969694946037,-0.00801803907605762,-0.0151811802145327,0.037746581929687,-0.00285185403700814,-0.0052420752605181,0.00267629281025844,0.00166192562698298,0.00722718023288273,0.00633570037358482,-0.0230578076642046,0.0354053036054039,0.00557341849771521,-0.0204878271962322,-0.00655649873493165,0.00688140524086251,-0.0239258888874134,-0.00631407254008418,0.00701599268669421,-0.0189908498921545
48_reference,-0.0358004056302374,0.0373940875887111,-0.012866168520542,-0.0212248969091817,-0.0133611187881492,-0.0796413852168748,0.0375775479169147,-0.00755708663516202,0.0138873543542828,0.0482772461290033,0.00158354232347137,-0.0463527633459446,0.00961384601055454,0.00348297995347197,0.00226178574222839,0.00256967147543983,-0.0270668586540842,0.0184026442859959,0.0220798729147226,0.0175452051764259,0.0284940581317949,-0.00255375491721951,-0.0356496453388237,-0.00675851830813721,-0.00914806273078528,-0.00208806626309552,0.000152827834969045,-0.0129777122194932,-0.0117598317237149,-0.0215286473215093
49_reference,0.0174462852505227,0.0103610988384672,-0.00563636896014154,-0.00161879678709926,0.0223798024594846,0.00427955646248597,0.0313258597134325,-0.0424578896141479,0.0404651823456168,0.028394829031442,0.0110467287356817,0.0025519274045656,0.0150683264775575,-0.0292580190769376,-0.0519333932198167,0.0143447594045702,0.0270379775642802,0.0068911259594988,-0.0151527527258447,0.00914216446330171,0.00602092317387984,-0.0291547832741793,-0.0974755026038453,0.0223651886703135,-0.043711060040852,0.0371455628453374,-0.0214662415584144,0.0384766786941374,-0.00621759005173386,0.0189378603480169
50_reference,-0.0481213504539376,0.0248920761843621,-0.0131964969484828,0.00868346486780006,-0.0177632334957863,-0.0127996524495822,0.018054244862899,0.0109442105507798,-0.0241690492502264,-0.0230892251724107,-0.000722856967042904,0.0106270637024296,0.0102553111617591,-0.00628399714874639,0.000671910617961581,-0.0148913266520256,0.0255208425516515,0.0166319928000763,-0.00283051788967702,0.00133986526437633,0.00156573446582238,-0.01823467794931,-0.0246783322653185,-0.00329923364163762,-0.0184031594440659,-0.029469814154463,0.0157881057422475,-0.0199241736410862,-0.0236525450351479,-0.00935077047435221
51_reference,0.00800171512710841,0.00725680941270248,-0.00886391532636395,-0.0399021615038009,0.0155995926588944,-0.0058119355885559,0.00600810757882161,0.00590170207962781,0.0396200627473161,0.0144214808658206,-0.023156537804388,-0.0269777263547053,-0.00270251664722465,-0.00752596192164351,-0.0274582527116277,-0.039682633644923,-0.0204086575005977,0.00810566660550972,-0.0311567904938756,-0.0291616327233624,-0.00376138734040136,-0.0106769250971251,0.010427659282146,-0.00986197379602352,0.0140380759588087,-0.0321247731431603,-0.0063228006283627,-0.0106954600952417,-0.0156007734226401,-0.0268918064206918
52_reference,0.020554004633501,0.00449974571742145,-0.000927708376444877,-0.0295096834978473,0.00320340694469169,0.0246431748564001,0.0413443293393038,-0.0407510044060101,0.00235994495579331,-0.015316959586968,0.00254102951472831,0.0275462101037916,0.0543902172710182,0.0298423206152332,-0.0402764731930758,-0.0697357728632472,0.0319271942387045,0.0160752443742451,-0.0293036967233039,0.0106149500694119,-0.00372242073348839,-0.0209414804026151,0.0331135405345172,0.0234811342162981,-0.0247218804031133,-0.0146093342652964,-0.0148065221385429,-0.000317496176541177,0.0386825389383077,-0.00153193583306545
53_reference,-0.0451551271525006,0.0420485222369042,-0.0317660277462501,-0.00870995618672451,-0.0312248897341145,-0.106380502447133,0.00716235108603931,-0.00281848139486304,0.0250765233554164,0.0482275134935618,0.0438067299982932,-0.0568743516699755,0.0526775106489127,-0.00253681845810775,0.0135754033460051,-0.0228565312885878,-0.0102012298583737,-0.0200797065345764,-0.000918748656154411,0.0241026686427873,0.0618761516423171,-0.0169789423038584,-0.0429569377006899,-0.0282931741927787,-0.0234536037458238,0.0115916882882661,-0.00765777654084064,-0.0117255808022159,0.0314945799207423,-0.00527949735312317
54_reference,-0.0487329083407288,0.0263169689785755,-0.0280727070476933,0.00816154992202874,-0.00926088452877911,-0.0220054467673385,0.0170563285602521,0.00427027930455008,-0.00311238920572613,-0.0148368561776452,0.0206939276278445,-0.0104860990236318,-0.00293370206593621,0.0105293316859446,0.00607563820108203,-0.0203144007504109,0.00162204984189416,0.0131772390765656,-0.0165337540715993,-0.0080294996542177,0.0287693216341084,0.0152190368543501,-0.00680418027173542,-0.00465712190069571,-0.0104189244725745,-0.0143595161454412,-0.015760684567375,-0.0135315293992872,0.00346017366716466,-0.0115019831350574
55_reference,-0.0419070852368483,0.0318513817516117,-0.0119929977047603,-0.0126635681383579,-0.022363596540119,-0.0677915377833775,0.0286520412125788,-0.000184568047378238,0.0103026887164973,0.0660234519878743,0.0402793496576303,-0.0717987921029231,0.0120220652010348,-0.00164958729128795,0.027814525829059,0.0152225226979471,-0.0223848647782107,0.00508057819345419,-0.0157256311115814,-0.000847354276941644,0.0252155893544477,0.00391411627703414,-0.0337928675448238,-0.00301151386377145,-0.0256161614229403,-0.0108235494355284,-0.00424866299618406,-0.0168194629591276,0.0233312547635969,-0.0340310752802268
56_reference,0.0147356055932339,0.00159161096434449,0.000607204044807512,-0.000362817895459377,0.00635668054975484,0.006827539850225,-0.00702060365416093,-0.0367786356366004,-0.0113388217953186,0.0373726813888931,0.0073275677274292,-0.00268012340772124,-0.00651861116474317,0.0231253810207975,0.0276532208310479,-0.00619693779112051,-0.0297453974595573,-0.0141599404920331,0.0140655987996513,-0.0106344634423213,-0.0183268100426906,-0.00418549340579304,-0.0672339395545894,0.00461571738395286,0.0451870515867921,0.0245342433930556,-0.0389764906218961,0.0397475550926021,0.00806368157989007,-0.0222192541322847
57_reference,-0.0466202097789488,0.0227378274000669,-0.00987686143611525,0.0231891557216284,0.0519382490338181,0.0355165570676611,0.0259026114565734,0.0293380836702567,-0.0218164395353292,0.0409022441417905,0.00811015711838263,-0.0205742888179834,-0.0116675181744575,-0.0153360072132823,0.00209624651082955,-0.00999013475065271,-0.0134581851172103,0.00491747065434454,0.0152987720240579,0.00676686351332742,-0.0239728537216518,0.00427170468759078,-0.0146744923750618,0.0180400548011509,-0.00300684147778554,0.0110914920215287,0.00052123132814762,0.0160618627567456,-0.000490488382821516,-0.0412886435273722
58_reference,-0.0229688275462898,-0.0516776415528154,0.0233099324811678,0.0214998548790668,0.023087166310953,0.00748494807161484,0.0230244731263012,0.0134805204008838,0.0167694414732995,-0.00285499131412116,-0.0191603953732401,-0.0110451794930023,-0.00140359353221757,-0.00712299645901814,0.0301329239316507,0.0207147424573498,-0.0116671386053537,0.00828263210785772,-0.00306284290951065,0.0153591409982811,0.0208622556014173,0.00103793349370134,-0.0154204220655249,0.0164215872925156,-0.00937285245860348,-0.00798061507245163,0.0041836452113027,-0.0101017870118776,-0.0153538669419365,0.00496021459724981
59_reference,-0.0481835764769767,0.0247089779486368,0.012422108690962,0.0156204743691404,0.041398490122639,0.0646387540619147,-0.0240507961579459,0.022007394368947,0.0164205143716764,-0.0137194671698462,0.00748487204298415,-0.0231913295636247,-0.0399797650627934,-0.0173461605328549,-0.00685446256518772,-0.00726985745881181,-0.0214046706832663,-0.0105200159482988,-0.0393038875324003,-0.027010086322518,0.000420873696275236,-0.0126253556546056,-0.0223473324309511,0.0040873342598459,-0.00936135518600079,-0.00291869723038585,-0.014221237074818,-0.00349458984839946,-0.0431602870293919,-0.00472900403690803
60_reference,0.0176176933639608,0.00497842382049599,0.00234090463198253,0.00325492224327022,-0.0108026819620164,0.00540898202152453,0.00553531625873938,-0.0510728771670136,0.021397948493682,-0.0175823879159231,0.0386181543144567,-0.014191326711886,-0.00321923319709638,-0.0196010118691615,-0.00407845576543366,0.000147258969151138,-0.00974736836037185,0.0161724563611108,0.00954773565502789,-0.00446617663769958,0.0220244017677447,-0.01553434425666,-0.0237768413196787,-0.00311406724114678,0.0239763670179871,0.0388041243742066,-0.000565589771591972,-0.0398879037850495,-0.00131412579753775,0.0490645830583945
61_reference,0.0138296218449594,0.00193027293553911,0.0136323739026685,0.0076650836177528,-0.0417029932102064,0.00971202709808132,-0.0257541336502084,0.0155076568328013,0.00458948503429258,-0.0117777970731589,-0.00971111040570048,-0.0215017695690319,0.0715434297921779,0.00420669579087185,-0.0252480309049013,0.00111712038118021,-0.0147636126499932,0.0299615868729893,-0.0316098415397531,-0.00270146606818716,-0.0156873972439022,0.0677934718318437,0.0201101238898672,0.0199806320076339,-0.0262838906588024,0.0337379106575431,-0.0162202854551413,-0.000652246113599333,0.00107058699779452,-0.000356024804204998
62_reference,-0.0472328253240013,0.0331077253608498,-0.0157292202814491,0.0080632830496783,-0.0156637165054579,-0.0112512912614778,-0.00202294245542327,0.0263140913899564,-0.0104046256190182,0.0594823283581873,-0.00731993618112726,-0.0114943153024499,0.00791793042345192,0.0121228664754919,0.0136814466819457,-0.00835400513087495,0.0158865268342314,0.00949771147941377,-0.0414065532122658,0.00105056318795305,0.0132087757387111,0.00928161116885786,0.01452877860102,0.0287302058489962,-0.0125965824229336,-0.0324176286430045,-0.00997488966731647,-0.00219824544575416,-0.0340716495346999,0.00112404380219986
63_reference,-0.0510916081837798,0.0235453896216531,0.0100307286238859,0.024851267235577,0.0335585069709513,0.0526101172421152,-0.0450793802341742,0.0293234793243899,-0.00658522339710357,-0.0146215362521503,0.010801976449914,-0.00781124054864163,-0.0105680527727278,0.0123080293448955,-0.00725291317045327,-0.0130517895005731,-0.0427649668172935,-0.0118122013041156,-0.0331778440960303,-0.0272836791091337,0.008716153732274,-0.0041438997966967,0.00393200838329228,0.0237383684086137,-0.0226385889869323,-0.01189009092918,0.010533413716701,0.0112921967241682,-0.0130964118850959,0.0248617403787817
64_reference,-0.0191728665449776,-0.0826691645489802,0.0345839327753922,0.00242335878933921,0.00882721325966221,-0.0287677455899865,0.00793277905830524,0.0145602938899951,-0.0100652498091464,-0.0032989274965186,0.0195816744359544,0.000763101488902768,0.00566737821250241,0.00557257269598358,0.00112915582351543,-0.0021015316426261,0.0211493051350021,0.0279677767829391,-0.0107752883247702,0.0150399406795126,-0.0174357168996044,0.00494374143354619,0.0125928474620674,-0.0216574551745027,-0.00877769820143761,0.00698050287647502,0.0157201649595751,0.00565112915042571,-0.00847616828700416,-0.00363493890796493
65_reference,0.0208075747074956,0.0187578656450673,0.00711122189412374,0.0193286650320414,0.0521127935962231,0.0434958671595023,0.059967836677191,-0.0154043732520762,0.00522966284062236,0.0393405210222633,0.0175880776981306,0.0067548333038917,0.0448367774963675,0.0403262371721874,-0.00350757208112493,-0.0114919778086324,0.0142480709307075,-0.0270910656739494,-0.0195687183662396,-0.0197955726750661,-0.0105655349566389,-0.0258670704555973,0.039654830336211,-0.0195204039854713,-0.0129953068420313,-0.0297408140448519,-0.0204012448087367,-0.0203660035771084,-0.0099452413035098,0.00718388958142562
66_reference,0.0162414627863796,0.0172878706278319,0.03632161768763,0.00082153353796835,-0.00237802983153536,0.0067693062029141,0.0198828347383623,-0.0344922019627777,-0.0294577573761484,0.0136385630475948,-0.0119863199683105,-0.0151995023060855,0.0325675553718028,0.0339702824096924,-0.0217842810946492,0.0353283620381959,-0.0274540132131357,0.015270834553272,0.0262556720773142,0.00157481644267851,-0.0101629380591673,0.0210690461001662,0.017681808978864,0.017933699924006,0.0114810144413935,0.0353535411896909,-0.0106105467257685,-0.0313065795396012,0.0172958072893297,0.00605563039104609
67_reference,-0.0426738387389723,0.0267324984394704,-0.022135879006568,0.013739132898277,0.0247657272278515,0.00592318050427086,0.00458036233756563,0.029016254528585,-0.00608726141002699,0.0191262932107837,0.0246696726094783,-0.00383417204400025,-0.00695867183203632,-0.0362676810371318,0.00128083315219899,-0.0197947708281706,-0.0169438362834302,0.0172858180877586,0.00113348736155765,0.0286374647317786,0.0167766924319239,0.0317149880643299,-0.044909924697211,-0.00324749974920912,0.0140487263144125,0.00233715679735794,-0.0134605652498477,0.0194164399479689,-0.0154255614558913,-0.0197219860025524
68_reference,0.00133144481033095,0.019834585863673,0.0178678888223833,0.00192343283580986,0.0212745157547776,0.0185649527653317,0.0230471913197837,-0.0124038802340357,-0.00988542044714597,0.0356065653163847,-0.00845306383635736,0.00881638194022488,0.0262272359639872,0.00891860303041806,-0.0364954049365419,0.00450991772548643,0.0242526007612879,0.00304448802925099,0.0361036259237138,-0.0146832708586874,0.0247511047311278,0.0104948676189999,0.014259060431942,0.0474965194481586,0.00187144862448411,0.0344648103643795,-0.0221005510682172,-0.0179676733740494,0.0227722043945588,-0.0252144427250755
69_reference,-0.0125890984989817,-0.0748498593835089,0.0289585524846034,0.00954636291582737,0.0135839327477716,-0.044924103605319,-0.000471869540135973,0.00115548869938584,-0.00762804631041031,-0.00470536440785894,-0.00306194206222051,-0.0051314961888967,0.0231765318614681,-0.0132724336571428,-0.017894827022027,-0.00567783271688974,-0.0023150401622116,-8.08140170682474e-05,0.0165399836324602,0.00364995941036632,0.00326899288511695,0.000162614450720755,0.00422755957102481,-0.0239878098262675,0.00852668933019944,-0.00918313939442944,-0.0168074041247815,-0.00348462333897423,-0.00891186526811689,0.015216765414576
70_reference,-0.0353229698305704,0.0122330083795951,0.006843617176902,0.0118421987383255,0.0314337901126962,0.0769490559611185,-0.0331292399239886,0.0174134547337023,0.0108698013009143,-0.0240516804212866,-0.00775422559607753,-0.0173944868486434,-0.0149382388150548,-0.0190458286200603,0.00232840622980448,-0.0254948431275441,-0.03867175583627,-0.00544056199386389,-0.0249160765333709,-0.0118390082895228,-0.029110573111383,-0.0342410219029535,-0.015461775331417,0.012300856060239,-0.0100946165690304,-0.00331606471925154,-0.0237263066411591,-0.0273913230279124,-0.0305104340403913,0.00874356135552052
71_reference,0.0154119006976969,-0.00291400632274679,-0.00374327715992688,0.0126830105038824,-0.0426887962537594,0.00945160898451613,-0.0122150304603284,-0.00390078965957793,0.0191113865514882,-0.0196757501708248,0.0390718457199747,-0.0242117227248364,-0.0447527436799027,0.0113689781925036,0.0371474077682063,0.0116228007309681,0.00529280960957958,-0.0324615497395254,-0.0272445428071344,-0.0133482117243237,-0.0282627129528239,0.0023015178904593,-0.0170057141063756,0.00456686983797189,-0.00664246333164472,0.000281582204046373,-0.000512517452757558,0.0169591190099216,0.0153455845026926,0.0482170390527665
72_reference,0.0200427147879886,0.00578156896932775,-0.00287835766172485,0.00748940208243041,-0.0243655106061992,0.00986758374570966,0.00771386208803271,-0.00934450254159632,-0.0115533315059769,-0.0336426955782524,0.0623714599927547,0.0111650704979676,0.0452795952204685,0.000493286769093936,0.0178855385752462,0.0373628418167834,-0.018219964901726,-0.00258519901189052,-0.0573439529683152,0.0725231402301316,-0.029727053292154,-0.0164160910680511,-0.0242573661173639,-0.0141563536154125,-0.0392725868039304,0.020109772221088,-0.011566539737107,0.00909315171905056,-0.0300311363839612,-0.00071607765462474
73_reference,-0.0216140399195677,-0.0684564242758643,0.0269195554981158,0.0140651385094287,0.0154148567193056,-0.0238512673466252,0.0414200806106809,-0.0104782844223755,-0.00852144020086048,-0.0145966547059182,0.0160346074389594,-0.00732987983209767,0.0110025521196782,0.00136760903766652,-0.0136885518538112,-0.0149605234324115,-0.00867378140598742,0.00444796969913499,0.0214162435356282,-0.00961777049838046,0.00287888326022408,-0.0115228158200031,-0.0119577736226763,0.0078678980896213,0.0222286013052979,0.00468886539274669,-0.00118821192212291,-0.00502952034091,-0.00233778225671694,-0.0023440100981169
74_reference,0.0114591388866703,0.00150065519465061,-0.0123475625008317,-0.0113029247349155,0.0417975627026575,0.0142548267102183,-0.00297255204873048,-0.0338349744538201,0.0273339278711859,0.0108134537704675,0.00807483340405101,0.0133391259883673,0.00211540032101776,0.000283849141280535,-0.0251544080643239,-9.54358777730335e-06,0.0410640608877682,-0.0106761043351296,0.0117542525026358,-0.00207768278849362,0.0170756424883061,-0.0364096590988586,-0.0364775030638705,0.0287877269234854,0.0224013910191621,0.0250237703725067,0.00829189614183006,0.00962938433451282,-0.0088758160112433,0.0138884498402294
75_reference,0.0226195336097748,0.0127925321439783,0.0127748455926855,-0.00100273448600214,0.0158112646817866,0.0108479278409408,-0.00398533652439624,-0.0219225694482172,0.00897485533761616,0.0203442566969512,0.0207590627301583,-0.0149272115514363,0.0166434868235034,0.00983555389333589,0.00312135676729292,-0.0247493414741206,0.0057446974087968,0.0173111465100869,0.00634956718304467,0.000862018405749608,-0.0169239325263285,-0.0216591683825957,0.00285759375493446,-0.019275574979314,0.0418036278042093,0.0101071182098792,0.0666549641565346,0.0216718387245184,-0.010792204162696,0.0049718147002609
76_reference,-0.0451502860641905,0.0494691292690635,-0.00826062639788684,-0.00917530724298403,0.00603966984619672,-0.0531827612171741,0.0563083244468849,-0.0203245059954531,0.000331689929072106,0.0231470856647721,0.0109712327744839,-0.0176345672157977,0.0113827862853657,-0.0277886942974333,-0.00941941781142036,0.0165198640914439,0.0087894443905931,-0.0270249973924592,0.0213306530338593,-0.00574656886314708,-0.0135677301218918,0.0289219408693932,0.0105022863108433,-0.0216074608247492,-0.0251891933468321,-0.0250347078957381,-0.010808279361202,-0.00794690068448041,0.0498429144013418,0.0102143520372233
77_reference,0.0240409285813895,0.00633080256736637,-0.00980047715108212,-0.00509370884386858,0.00532281494746767,0.00931031921198469,0.0108695198232654,-0.0247896011249082,-0.0097469771791425,-0.0140185612574899,-0.00207710934279385,0.0090324816298578,0.0153363097253696,0.000645483424391206,-0.036587155792348,-0.00569381161846065,-0.016197798616867,0.00831394004107006,-0.0282445743320458,0.00171929715021654,0.0354677999923184,0.00934503303279075,-0.0128994361912611,0.0116208322934035,-0.0199141461054349,-0.0241252657480907,-0.0381702288006476,-0.0300565468501434,0.0200908604201775,0.017561075430076
78_reference,-0.0461152005260812,0.0308937604888987,-0.000898826947276566,0.00573709124776082,0.00134486629954369,-0.0109150654083758,-0.00929710586765778,0.012661865718403,0.00795510550816468,0.00721352842504873,0.00470149836006041,-0.0126083200912249,-0.00925146737367123,-0.0133492643219009,-0.000536451762157504,0.000979999337224673,-0.0229313845441117,0.00926190400694785,-0.0284201960073701,-0.0132869637489448,0.0319720590853551,0.00494543483530152,0.0114989181175273,-0.0141131777606828,-0.00438529142122142,-0.024154286351637,0.00141222867269074,-0.0151043702517972,0.00788591215274879,0.00749804600546043
79_reference,-0.0101778526173524,-0.0142510214166256,0.0167597451110327,-0.0114553855679916,0.00708781411733329,0.0124877307787666,0.00121822903184972,-0.00513778413559235,0.0507272957136196,0.00604969289494972,-0.0633144740434033,0.0101332823558479,-0.00133597712560733,0.0172531060553441,0.0708881923820038,0.0740735064756897,0.0156984021468071,0.00763691756624146,-0.00575854181208612,0.0355586096001763,0.0267959746755498,0.0139546932817528,-0.0248283517082279,-0.0112238917529234,-0.021830234626778,-0.0231089399770137,0.00825601467937809,-0.0220846358616478,0.0209950587174173,-0.0161213357946372
80_reference,0.0114406895792523,0.00747246563385416,-0.00496282362044461,0.00543768741218318,-0.0120744609886539,0.00669077532642553,0.033743096436534,-0.0160999195513207,-0.0268586480013541,0.0167437312112262,-0.0125396969154361,-3.24053632080297e-06,0.0209744614288021,0.00844993138440015,0.0345348970955864,-0.0146215482383722,-0.0316423846021326,-0.0128116750305116,-0.00349377936568915,-0.0429542530609313,-0.0190892871598715,-0.0156137917263762,0.0227233739640435,0.0201300501632813,0.0286156168178081,0.0496871394163643,0.00129966509415044,-0.00403965974045756,-0.00872157661505096,0.00359539795360179
81_reference,-0.0348502039014256,0.0257348196350572,-0.0259700212932949,0.00630463448444817,-0.00503286244684789,-0.0351897678821361,0.0112269268251864,0.00960136296828049,-0.00808295303330229,0.0310358694552572,0.011566874032439,-0.02720065710952,0.0181451558148711,-0.00845477000133818,0.0303980913976711,-0.0202502637823743,-0.00435273556035151,0.0158520880938888,-0.0274897774736164,-0.00755668481420907,0.0442903554723117,0.016778443272037,0.03753438878352,-0.019828812298217,-0.0288607068237284,0.00568768667278164,0.00659432357588227,0.00097290508295372,0.0366617984800487,0.00629079224579082
82_reference,-0.0443446684478319,0.0198552500304504,-0.0140851874753022,0.0100293046692598,-0.0161496065458822,-0.0285249518194537,-0.0175448011363171,-0.0146228244834427,-0.0245830994581502,0.0196889293808664,0.00312622288676972,-0.00767168035528287,-0.0301795601215613,0.0231099722811175,0.0300657856012158,0.00250345746799183,-0.0107787362836351,0.027599891588679,-0.0257703113856425,0.0146911520389584,-0.012504910985824,-0.00026254572951913,0.0444305658182957,0.0402314451226912,-0.0385809097805984,0.020844696663003,0.00506259462885622,0.0392744633790385,-0.0192152861121164,0.018263806128299
83_reference,0.00852407129693259,0.00135213156677758,-0.00793696432374021,-0.0739608949075289,-0.00848916251277758,0.00165311086671834,0.0265043885833867,0.00373053716171124,0.00303566650743612,-0.00359743986118604,0.0197900319214679,0.0190085153129379,0.0222245798304737,-0.00125954885691861,-0.00615703938785144,0.00398551388896934,0.0370968727375224,0.0143580520306163,0.0250559006104609,0.0128632752571312,0.0303074311638603,-0.0130381677024418,0.00997504410513458,-0.00762401645046631,-0.0114132835753372,-0.00511390940023818,-0.0121491976053374,0.0108210081126095,-0.00115226327974154,-0.013072196780868
84_reference,0.0178176937679954,-0.00428620426938358,-0.041960499833566,0.0188129996278964,-0.0116158250488829,-0.00566928607961082,0.00562915506139283,0.00162967261015666,0.0220689037420685,-0.0384775071501338,0.00465647280489103,-0.0164926757801111,0.00434510551766239,0.0189499044394703,-0.0203486764424478,0.0169676857274586,-0.0308409876904892,0.0200921875647735,0.00730775431121672,-0.0109546537943452,0.0321378986428108,0.00940885483507149,-0.0194748245402176,0.0167300318180662,0.0360441726927421,-0.0405723624293504,0.0378907122205308,-0.00531713432802502,-0.0392518787710469,-0.0126484431555523
85_reference,-0.0405569328168647,0.0318179886650873,-0.0115221118071133,-0.0225522447657858,-0.0230625407511348,-0.0628388318484006,0.0201647151812506,-0.0272515278808123,0.0228754877804409,0.00282780381584837,0.012947880500316,-0.0309706088552565,-0.0130877991135145,-0.0153711291927355,-0.00497404555118092,0.0106387596180816,0.0193601999981609,0.0301631765283889,-0.00925560892190382,0.0199690465090987,0.0116626095625374,0.0311898325301368,-0.00754403255144582,-0.0199535529281683,-0.000351186315660576,0.0103426881673625,-0.0110465332653928,-0.013434381450453,-0.00609489828254437,-0.0129383706641446
86_reference,0.0186523982524247,0.00183391164761727,0.00468910394669112,-0.0179579037358519,-0.0376529494475307,-0.00152557865783194,0.00718168404834777,-0.0549016054844861,0.0257108888975134,-0.0367958169927431,0.0181016295001332,-0.00587714420725505,0.00142341138139781,-0.0315186425430216,0.00788593715351541,-0.0106732318062319,-0.0249135002284155,0.0165881182351982,-0.0495662623980698,0.033826252556467,-0.000567613109993537,0.015036944187317,0.019057473524399,-0.0139041993361832,-0.0183663672992176,-0.0227979955744012,-0.028660051935686,-0.0198704155254566,-0.0241752547720984,0.0208733787077315
87_reference,-0.0408447868625896,0.0288916624430478,-0.00936437769897596,-0.00368566888532626,-0.0185224696866455,-0.0425156877970797,-0.00682892271463364,-0.0129004946328557,-0.0323283851363216,-0.00747442141974901,0.0220094779203435,-0.00646377750561738,0.0147385648816681,-0.0191388555719235,0.0129474336525532,0.0165981387046778,-0.0129598480687966,0.0150924172156065,0.0465781757999623,0.0132828301971753,-0.0290744776362185,0.0646691452067761,0.0258588408003288,-0.0109271944022059,0.035848561852592,0.0112036827410161,-0.0115497425134622,0.01954856198413,-0.0189008178098598,-0.0265836853526106
88_reference,-0.056962783302359,0.0284334493132903,-0.0073584009876677,0.00106724270715811,0.0170354605419056,0.0131605262762767,-8.7858191813374e-05,-0.00233082279019901,-0.00663808567721817,0.00897886305919058,0.0164916926351862,-0.0111978401097526,-0.0164682027887996,-0.000105905372826197,0.0155701462528815,-0.0137658367712566,-0.0102687716393646,0.01186344069135,-0.0338196052223883,0.00708686210068947,-0.0309423121303984,0.036974777592729,0.0509058210984338,0.0451095559884897,0.00455321953386987,0.0252814724125403,-0.0170383412461364,0.0323074749247119,0.00378547623638007,-0.0370988771857693
89_reference,0.00925017246051883,0.0166842615451674,0.00534051151217479,0.00443757392366457,0.000515930540050279,0.0151962660690967,0.0257279529173533,-0.0434611053016605,-0.0479906659858359,0.0369589330907257,0.0246329621996701,-0.0214752862241468,0.061546951823389,-0.0374067402269134,-0.013808778979907,0.0221293648383122,0.00936479118057273,0.0196615386672254,0.0131862961408695,0.0124400380826396,0.0126725929590061,-0.0103939933978281,0.0269411552009287,0.0301319585031935,-0.0201376102388994,0.0054345140017717,0.0287289908125402,-0.0244674135134536,0.00316402619188194,-0.0230030338548359
90_reference,-0.0399708523427257,0.0214714672089514,0.00607471016391618,0.00245928244588696,0.000273527894871648,0.0267901435868795,0.0258019534269859,0.00837867806503103,0.0017927682325643,-0.0242640342482348,0.00958195411996253,0.00451909547177992,0.00946427183789283,0.0273609314311676,-0.0205245860268852,-0.00794528961731512,-0.00099176424494696,0.0247298313180071,-0.00036149720556089,-0.00455727331817821,-0.000137398842397579,0.00465556686430315,0.0221329450130403,-0.0168041972704396,-0.0223195734364473,-0.00450238001293455,0.0167214473735952,-0.00300666727090952,0.00985996509896143,0.0117183415917447
91_reference,0.0176707650629158,0.00202323917143942,-0.0119666723646941,-0.0495763781383004,-0.0185976542792051,0.00878534924127087,0.0310049718153698,0.0139007560624318,0.00208108942974763,-0.0514597812678637,0.0197733046748559,0.0215432558493491,-0.013805467050489,0.00502993868259082,-0.0297833056927559,-0.022088735031071,0.00841936121038063,0.0275588886971236,-0.0124845742585936,-0.0351475320802295,0.0297735326767214,9.661568929404e-06,0.0274416738250502,0.0298721791906711,0.00608826764342254,0.000263726713625777,0.0116362298669146,-0.00221927547284211,-0.0156550973062011,0.015611227911562
92_reference,-0.0203868045363371,-0.0601445752307747,0.0448425705882048,-0.00244450418307397,0.0310326910939775,-0.024719951381787,0.0335432986272841,0.0239029096637842,0.0057971899561173,0.0132575691042445,0.00593142817871176,-0.0155416908697303,-0.00627497037822864,0.0110700326895966,-0.0172330032442607,0.0032033704578112,0.00975944039498464,-0.0121890357209683,-0.0436193794867944,0.00978994100972715,-0.0178136533320862,0.0304083172847025,-0.0038003345809519,0.0094869696604424,-0.00982898228026367,-0.0135948822364764,0.000976105870296942,0.00309123561641559,-0.00436239210812353,0.00762695340900748
93_reference,0.0107940122423631,0.0105856462471545,0.011348707489263,0.00360284054370217,0.0182958548793549,0.0124770393404375,-0.0188693809025946,-0.0141771176110651,-0.00774564376553357,0.0472663918725333,-0.00755882977748488,-0.0191702538548357,0.0229869109580181,0.0235645810342853,-0.0205261614019522,-0.000848390540022529,0.0211394442461631,-0.0190247951615871,0.00106273102489832,-0.00182107651719375,-0.000418070510003319,0.0114787296621726,-0.0069070098556519,0.0109490834509942,0.0275059807601711,-0.0311275725511988,0.0299183242726454,0.0323622402526253,-0.00746602923275059,0.00644274144090582
94_reference,0.0148132245230462,1.64342985075233e-05,-0.00471697560810058,0.00472602513814095,-0.0340218838949583,0.015901285378449,0.000293763786020889,0.00190537667172781,0.0229782031326735,-0.00429728025418126,0.0280992718514298,-0.00711576054056628,0.0158560868128198,-0.0411525244029284,-0.00537212372145173,-0.0109122835318809,0.0303028351395523,-0.00378317560043045,-0.0222884091421565,0.023631078979129,-0.00551776124302398,0.0211200009446412,-0.0239811097670912,0.0173482460793205,0.0119390525234348,-0.0315247287489648,0.000459163464086752,0.0402935898313111,0.0112653752821528,-0.00729407911229912
95_reference,-0.0479171381790324,0.0265113435006592,0.00151350143858894,-0.00268765104679936,0.0300152720675899,0.0374678651207759,-0.0221530660168084,0.00496151064173109,0.00136424295681006,-0.00563532226789887,-0.011848093552087,-0.0222284092221905,-0.00555127741541181,0.00252189892254491,-0.0045614970575152,-0.0104103510849034,-0.0245541902175068,0.00274517365510881,-0.0406313319970605,-0.0133340657108473,-0.0123482806325362,-0.00455536776502647,0.0606149887282593,0.0414526876915683,0.00248193300000817,0.0070673890652274,-0.0366691703429722,0.0262257902834459,0.017784756375106,0.00984991436158058
96_reference,0.0176696951448422,0.00424758994510791,0.000464915629050045,-0.0424093384685118,-0.0231827328434018,0.0157950421236901,0.0291259776356084,0.0469122708890858,-0.0375527806200421,0.00510649929430375,0.0112571083173772,0.0238849222736492,0.0227361889780287,0.0135362602309641,0.00891102105990482,-0.00300033292919613,0.0375122083106484,-0.0169220646064637,-0.0325062861010928,0.0391333887534817,0.0130457962497088,-0.00837637019713655,0.0144034134409766,-0.0363055274670178,-0.0123821899501404,0.0530827198015009,-0.00125562309675842,0.0227615340692758,-0.0399239004323905,-0.00357619098538213
97_reference,0.0129209339136456,0.016033862688812,0.0133481180190634,0.0161471795624445,0.0238494766497996,0.0120740254266221,-0.00905942377198133,-0.0269261084817314,-0.0124155217955475,0.0065169293185222,0.0314782887647924,0.00620901263976781,0.0400310709480618,0.00139068176497936,-0.0311913810057343,0.0126331500844834,-0.00378106117313445,0.00293369629551426,0.0387172076241236,0.0460926348254762,-0.00233174155127583,0.00589980631944808,0.0166430481289137,0.00432316715614306,-0.0539439573953475,0.00133665784615469,-0.0197557035808748,0.0118297562332067,-0.0109371151869465,-0.0387989210221156
98_reference,-0.0463452334939636,0.0176002487936255,0.00660573392264162,-0.000741227263630638,0.028147655724281,0.0571090039362624,-0.0413614822078374,0.025206881654721,0.00965590270007684,-0.0496407372072938,0.00197967614621894,0.0093873304459625,-0.00290644457849954,-0.0150434969037947,-0.015675840280026,-0.0326521919430595,-0.0170377301982664,0.00223420473251895,-0.0189632528993095,-0.00443315418324882,0.0088011980429067,-0.0150692018194684,0.0183808997356206,-0.0174504677014355,0.010238930105091,0.0091809998669928,0.0188045401215586,0.0108096906344673,0.00488347589033728,0.00197062887695472
99_reference,-0.0436980668391598,0.0292375309938399,-0.021028174300059,-0.00552506149586762,-0.00235687034855142,-0.0225439314504377,0.00894549553949561,0.00546480081100048,-0.0162431992748022,0.0130851468654185,0.00829465509028938,0.00423371353364107,-0.0237150069656065,0.00140232720786571,-0.00577048918731706,-0.0278240889036649,0.015289516850706,0.0306483172016991,-0.0120740092868477,0.0155805379350669,-0.0311009364692799,0.00745023422060912,-0.03459265060582,0.0248516915586095,-0.0178375316052978,-0.00802432784077791,-0.00435615177833803,0.0180353761695629,-0.022593803409997,-0.01692710197187
100_reference,-0.0276558058946524,-0.0494103743825751,0.023383815896191,0.00784348164597854,0.00604025034783973,-0.0369356160135331,-0.0197176521087804,0.0151057590896464,-0.0014822081803548,0.0185695506045291,-0.016135325621798,0.00383715480686754,0.00467773540903494,-0.00160579820782476,-0.00304921582805993,-0.000530931926977489,-0.00545290763007223,-0.00233227594329052,-0.0358436908343076,0.0148399361763935,-0.00387474656067953,0.00416243832070193,0.00539421096983685,0.00712230141229672,-0.0209894894477747,-0.0366001847709472,0.0290318461716767,0.0109692074529856,-0.0205215015046495,0.0340108267934258
101_reference,0.0130745446078508,0.00578525340966631,0.0199616319231732,-0.00568967053281311,0.00177106142165401,0.0109966160138859,0.000137651165475999,-0.031103010265966,-0.000169115950022785,0.0275592276920921,-0.0103840731982444,-0.0056969508016412,0.0304846585876232,0.0117945223594135,-0.0338092214680996,0.0310189386223047,0.00168417272825542,0.0105835626212355,-0.0137801489766749,-0.0162665561694937,0.0186692545942176,-0.00831036583127286,-0.0058258326601872,-0.0125804523470765,0.00448541211357,0.0154579739605249,-0.0361488811289816,0.0232344567177057,-0.00644664654525928,0.0181333685142147
102_reference,-0.0134528480568435,-0.0641198371552601,0.0428635884042646,-0.0100106896432413,0.0219142828485125,-0.0363531895207264,0.00331258732870027,-0.00178894998386111,0.0330677321496458,-0.020072878270303,0.0107493278971396,-0.0143486816063279,-0.0106390060513332,0.0151169728853651,-0.0331062987099656,-0.00353358010864357,-0.00860416397887376,-0.00863780693664856,0.0146965450041321,0.0319791454781812,0.00422870417872478,0.0164830700789739,0.0258488709700747,-0.000986884859840545,0.00388996386675266,0.00486121848008646,0.00210945457636131,-0.0105608823073489,-0.0393140859522816,0.0309843187988542
103_reference,0.00952255671416988,0.00650924584115056,0.00617246299842361,-0.0295617322431847,0.0109547093730861,0.0266778896163599,0.00511686832198566,-0.0178675016640308,-0.0142665126349578,0.0241093126632878,0.0166561620771332,-0.0127194286600358,0.0101827256561257,0.0212395619591607,0.00950248713037972,-0.0293943156843283,0.0113232010229222,-0.00394653100516384,0.00434566216344591,0.0430116335341114,-0.0224995564633516,0.0319788612260196,-0.00488389283895539,-0.0207846719473122,0.0283434563880153,-0.0138589797577606,-0.00284475656937497,-0.0187939035980411,-0.00569356475123169,0.0398397684641956
104_reference,-0.0526262938319359,0.0375266415231733,-0.0232085156832743,-0.0180665308430486,-0.0295603491610632,-0.0492532980763389,0.024632985462784,-0.0105332778652992,0.000635116616564911,0.0294963965678589,0.0167781429107129,-0.0255855641488667,0.0386527028993394,-0.00137318885363407,0.0192584817086787,-0.0139823074873599,-0.00506056754541644,0.00565851459628272,0.012310266426758,0.014136112776615,0.00359509401934209,-0.0121398859521233,0.0056328635838683,-0.0165750208636991,0.00942971277584428,0.00351600472690726,-0.0036321479111307,-0.0105093016398071,-0.000634882583138842,0.00116571046341786
105_reference,-0.00559427265254686,-0.018727204530436,-0.0112166480233605,0.00612457704811395,-0.0270003071411966,0.0476867900938151,0.0144051476081509,0.00962894694006493,0.0277779082872571,0.0262032431339291,-0.0183655419894711,0.0390008063047504,-0.0224898603929957,0.0306475364333253,0.0229008088899767,0.015788364370389,-0.014380976476128,-0.00479784537933751,0.0134278286231353,0.00272630556741903,0.0307922762974114,-0.023839134663427,0.00297552812155225,0.00968423194997404,0.00409841317709058,-0.017235073824619,0.00799085821551014,0.0111669780349292,0.0122148708911701,-0.011618791283113
106_reference,0.0169195735009312,0.00345504920628985,-0.0151181843498825,0.0243448344520184,-0.0188166327727069,-0.00377324961599896,-0.0238290066170503,-0.0134580182998582,-0.0423434629421368,0.0155569541341766,0.00458048437362198,0.0109499403610717,0.00969631335474232,-0.0552019607368769,0.0300156242386134,-0.00588468834479539,-0.018295175265319,-0.00811064917215019,-0.0369933760094376,0.00487608401698522,-0.0244082060794798,-0.0193827247701592,-0.00341346913812721,-0.0123400905792379,0.00983907510457085,-0.0109045201962251,-0.0185648447295496,-0.0173529365109925,-0.00339496420194445,0.0152371558770544
107_reference,-0.00867201834986251,-0.0140822380702139,0.00525546134551905,0.0112479550170194,-0.00705824783699706,0.0411790313648952,-0.0132328205429375,0.00152617590337407,0.0434001563788882,-0.0246747042926961,0.0103526418765231,-0.00872242342968721,0.0353472997866322,-0.020230877736416,0.0505941051370457,0.0379028311521675,-0.0101063042565276,-0.011151247003834,0.0549756975396533,0.00968143288746952,0.0153943613762531,-0.00669029832423524,-0.00833006354763507,0.013348770918382,-0.0105783168174301,0.0126598876641379,0.0170128071255071,0.0135874611416594,-0.0221125623964314,-0.0349334414595478
108_reference,0.0140344884723738,0.00700544322514762,-0.00617699437266334,-0.0361348626235238,0.0258169438702465,0.0106269761140664,-2.6426731619824e-05,-0.0214964768988967,0.0066248855874685,0.0112916714015189,-0.00357270702742818,0.0214816916592883,0.055434207161273,0.0320369338778047,-0.0164168330487303,-0.0203631188978927,0.0403991957636468,-0.023550328843445,-0.0357706841516125,-0.0151249902064162,-0.02253593652651,-0.0349610822336719,-0.0150745961038904,0.034311039743342,-0.00934686234661873,-0.046461580882075,-0.0331223320985269,0.0154931891766208,0.0366979890594266,0.0160346259864074
109_reference,0.0136662623360136,0.00786751875949365,0.000775579078090637,-0.000769440562922065,0.0185342488290778,0.00946062206075799,-0.000246198902972519,-0.0282645234570293,-0.0104197393240654,0.0511311717075872,0.000923479944001147,0.00827526635024323,0.0379332140345245,-0.0055846167211093,0.00147232935221582,0.00404005010426065,-0.00511482133132444,0.0174929554783158,0.0167667903463575,0.0363152576226365,-0.0295506010647885,0.00104194192834042,-0.0198101166176186,-0.0101447910185425,-0.0100176368522242,-0.0361487583304296,-0.0180456368181554,0.00426047051666421,0.0307536388586325,0.00311538119274801
110_reference,-0.0105673465977909,-0.0450907109925902,0.00476791707931291,0.011132679440023,-0.00427895816707027,0.00621415004889311,0.0118234490840284,-0.0149851524387851,0.0314396191477507,0.00351149931395846,-0.044983273201367,0.00932845345038286,0.00368692347786069,-0.0112808020979711,0.0718711037397102,0.0366503391598444,0.00189375337671828,0.0283854349200736,0.0270823843479029,0.0105471523604836,0.0351905007700476,0.0181074479246219,-0.0237593372689936,-0.00752659135422624,-0.0138887204516778,0.00671387751227226,-0.00184951625418039,-0.0376229846302457,0.0161384157562823,-0.00337754048211242
111_reference,-0.0142640091045349,0.0186311983665037,-0.0144046954754112,-0.0310996266405366,-0.00594914629911157,0.0182822003511152,0.0109883860957887,0.0167140963559656,-0.0223211133489072,-0.00914469675717759,0.0197715812669867,0.00355830003009538,-0.00434469799997678,-0.0121390839420186,-0.000996304287607941,-0.000970006510571515,0.0131888768233437,0.00771567610903057,-0.0477283420133773,-0.0237897807497536,0.0449044404584658,0.0219775633902774,0.0245177394986058,0.0260077707432151,-0.012610182958876,-0.00149428366812259,-0.00848700161755939,-0.0200372380059893,-0.022541942788708,0.000214736948220608
112_reference,-0.00198885642079141,-0.00701125572055442,-0.0144811373688212,0.010869928475174,-0.0506719030309983,0.00712424096736664,0.0155182696092908,-3.07364870045035e-05,0.016896132838455,0.0626014211422627,0.0324419849038701,0.0756119602314139,-0.0357505753319713,0.0111345490634712,-0.0221369161176803,0.0161083206921755,-0.0516303064393262,-0.00893589457941644,0.0446397322580084,0.00557827537608771,0.00725099081544784,-0.0132318963431802,0.0142219301315952,-0.00701077931459719,-0.00459986272185916,-0.00110627015282689,0.00569122237926688,-0.0261265861371073,-0.0107154006585049,0.0324268185384304
113_reference,0.0084788290191762,0.017322374346692,0.0127895404697451,0.0215195817916341,-0.0560131319394728,0.00165908705317461,0.0224345808687493,0.0161819774513945,-0.0191023318342876,-0.0263437153794365,0.0279871562395582,-0.00395107128891089,-0.0137400437571255,-0.0623757179292001,-0.00144360912522402,0.0301126886524497,0.00917518138100159,0.0305943531670942,-0.000166338960608141,-0.00881009491792047,-0.0370958827222353,0.0220643307889965,0.0289867299364882,-0.0114573695923539,0.0325046646913877,-0.0365647291882056,-0.0517644435358968,0.0179908311976993,0.0389222476352359,0.00417030955868912
114_reference,0.0149345187613711,0.00595663504180409,-0.00275373254469889,-0.0103170536509815,0.0275399743308704,0.0327972037467768,0.000667833369204498,-0.0269722164186238,0.023705592057937,0.0161523374133626,0.0306459511156205,-0.00505808173794326,0.0181078611925125,0.00329705927193062,0.0044614103175001,-0.0161666143224651,-0.00593174305718859,0.0290481743956843,0.003006774841794,0.0213579285157316,0.0265171061786163,0.0195432218099858,3.85332976680935e-05,-0.0505357376146186,-0.000965930338821169,0.0322428780483275,0.0251971659663034,0.00497772002146336,-0.0500815680590852,0.0207880495452464
115_reference,-0.0111014194839369,-0.0655211906430679,0.0229634348121179,0.00984458693267911,0.0320697043492705,-0.0137685941031888,-0.00901523682710543,0.0161807929826295,-0.00261516886849428,0.00567200413997644,0.0113282572440166,-0.00714116681647725,0.0199373598412155,-0.0105642453968317,-0.0108603438157924,-0.00312098613124193,0.0115941765589928,-0.0117992278486556,-0.0198784095017917,0.00675204427512823,-0.0100434222944062,-0.0119186871085639,-0.0131742429300992,-0.00588436691914919,-0.00712553413736758,0.00173761358085097,-0.014148603642375,-0.00742067061353697,0.00174025473821689,-0.0295991692961283
116_reference,-0.00227649155031612,-0.0112738620878094,-0.00931567572445889,-0.00053229984835189,-0.0612486316712404,0.00994691171627147,-0.000259195835548767,0.00136091660658544,0.0345778107000043,0.0468970731715041,0.0362693640270233,0.0667207468140722,-0.0494818005775628,0.0221852584521645,-0.0555811283495434,0.0144018004447849,-0.0381543035414342,0.0108207364775585,0.0347692775083884,0.0261853780376492,0.0200447892420447,-0.01717354326251,0.0334942072343086,-0.0112268166517259,-0.00162989970482477,-0.00507286873471266,0.0145962508605619,-0.0133053874687533,-0.0089089485506767,0.0138440121522981
117_reference,0.0124514584537206,-0.00227201560709451,0.00797279794365435,0.00691716544773159,0.0108490269672523,0.0125280426828976,-0.062312290952641,-0.0352239155321899,-0.0110603387902355,-0.00869523468141767,0.00703539887293528,-0.0234836503466213,-0.00668695457930179,-0.0164638957233754,-0.0370166320555439,0.0130191100300325,0.0177497253524049,0.0186497163613294,0.0317734628100307,0.0343581243470905,0.0464822529399019,0.0388458599201111,0.0219615616304542,0.02630901090784,0.0222387079288058,-0.0228292029061147,0.0136396711898315,-0.00250478001744629,0.0048746820692567,0.0214973814772472
118_reference,0.0114552138642574,0.00158991579089037,-0.00365809513234875,0.00287301278981984,-0.0032333864440645,0.00182728539235918,0.00502143391537248,-0.0390827306369465,0.0140723033665005,-0.0132671237095498,0.00680589077427926,0.00529715379979468,0.034630910978566,-0.00988302098740947,-0.0250813678158046,0.0154313466754002,0.0271126745488065,-0.0139026470879938,0.00804472478691766,-0.00212030048085976,0.0271843905874248,-0.0247543799128869,0.0126493128746838,-0.0365263858176623,-0.0153851453256155,-0.00245640285409592,-0.002839904332185,0.0285994158245015,-0.0189234545120591,0.0169438847832265
119_reference,0.00401628615353363,0.0152203474200581,0.00910668726400078,-0.00649611679995732,-0.0212186752757991,-0.00748198261295162,0.0122322664507771,-0.0258668932219954,-0.0149587328523475,0.0134315408616683,0.00982563604507545,0.0226555798477448,0.035894446484691,0.0206970267624059,0.00858388550188203,-0.0141833138933966,0.0163400245950094,-0.00488199894552142,0.00956724340184784,0.0109725691430886,-0.00964300336948705,-0.00894404794838598,-0.00299340463740357,-0.00552915541453315,0.00215268590790164,0.025705298878163,-0.00805787497082918,0.0239407941656023,-0.0243173530957233,-0.00712841253534894
120_reference,-0.0197786518805006,-0.0631578792739101,0.0159621175470681,-0.00195566705591291,0.0194393345213406,-0.00396861671770853,0.0293863107111407,0.00654389240521366,0.04709344980906,-0.0170349972986023,-0.021150104876859,0.0128107392421131,0.0283294908855537,-0.000993735138494287,0.0330610325013038,0.00158529859621595,0.00244773210353712,0.0117104760844741,0.0171163855415236,0.0202653278284609,0.034639629773597,0.0154094619499007,-0.0113157650128548,0.00753375777200814,-0.00116527356915996,-0.00988116181180573,0.0115922261850414,-0.00908261656880442,0.0072001669411539,0.000245578087724303
121_reference,0.0240065557265222,0.00491893436311872,0.00481180007673303,-0.000126479136580972,-0.00344123400345036,0.0373265466304963,0.0777805008405377,0.0151566648316275,-0.0291887597529382,-0.00238413506664972,0.00983840578433809,0.00937609941912709,0.0382420855060169,0.0144798909626685,0.0124819157676362,-0.00310547884010551,0.0046128887311465,-0.0245438393806484,-0.030249745129064,0.022201783372677,-0.00620982736892006,-0.00343320145812826,0.0275788320678151,0.0281160097290093,0.0566672444307611,-0.051432407066482,-0.00637739760529321,0.00818960810897682,0.0193806918509402,-0.0349540510251858
122_reference,0.0161332639083387,-0.00355503355745518,-0.0162810196316123,-0.0299009749426022,-0.0116817628555615,0.00230805621490799,-0.0313937128120664,0.00977274106698522,-0.044123808978476,-0.0105386319866151,0.00101105716445827,0.0173285626987632,0.00479982731531142,-0.0265758889498561,-0.000944690789764108,0.0101189865802682,0.0344878405205583,-0.0289588299427018,-0.0113884787905584,-0.00254723900984838,0.0294866526617204,0.0374840758037173,-0.0115179362048004,-0.0199509127890419,-0.000426640073429103,1.41363250051996e-05,0.0118974445994268,0.0165340767317946,-0.0730101939289421,-0.01341624190785
123_reference,0.0173799078146005,0.00489999223873081,0.00135516782564755,-0.000610325462340257,-0.061618805936844,-0.0154050932162897,-0.00684735127185749,0.00323366144045212,0.0227302751607316,-0.0129814539586492,-0.00181103908047073,-0.025198612012426,0.00122741194220425,-0.0169278333965978,-0.00378487608030809,0.0088396861609306,0.00853148895614093,0.0314408502439687,-0.0491620497831023,-0.0305039151723917,0.0183567270206752,-0.000754412560514483,0.0185319665469645,0.00260084456445712,-0.00985934530398251,0.0118800872515017,-0.0124409308818197,-0.00903053391448635,0.010154860881538,0.00232480454447184
124_reference,-0.00452770948410465,-0.00744065179613924,-0.00435765633335047,0.0158909813738953,-0.0578557001284207,0.0111923996396284,0.0281554836030922,0.038740624207719,0.00954508230766485,0.0631101196764548,0.02279329563231,0.0794068728418474,-0.0280689227944457,0.0152298410561329,-0.0348654681464687,0.0107461316819099,-0.0381723117406486,-0.0235398666432869,0.0177198484891993,0.00350289583365948,-0.00546460575293257,-0.0210881399539155,0.0229079397456083,-0.0151701480951341,-0.0109759998541943,-0.00944561257493396,-0.00401140288334722,-0.0637226003448284,-0.0230961813069472,0.0310522888116266
125_reference,0.023309843249312,0.0027159827824371,0.0129439597993837,0.0083562482424539,-0.00476239703069706,0.0216538422441417,0.00653864115769709,-0.013984008731918,-0.0178560891018561,0.0172205351656037,-0.0108733737947939,-0.0114420596024703,0.0325977611888971,-0.0100437669072329,0.00637045995609732,-0.00237807044696507,-0.0170737003730451,-0.0016382275353987,-0.00662421777353721,-0.0183748514365073,-0.0138589060248166,-0.0447751641714996,0.0117070371713329,-0.00173849650936294,0.00150055796586398,0.0519038018592269,0.0263633432101,-0.0102045883956333,0.0369864997749091,-0.0471397519135693
126_reference,-0.00679387728883717,-0.0210382856816188,0.00267300807092219,-0.0076477528059943,0.0118773167854652,0.0316703119229291,-0.0123773743197284,0.0115946152615265,0.0429188258696029,0.00890006639343102,-0.06282763776015,-0.00410049267267702,-0.00301401410919987,0.00317745388004965,0.0448163479949625,0.0279661391503512,0.0388063283262237,0.0105005930920538,0.00597799340460884,0.0299677672326539,0.0160259110944309,-0.00876507348863065,-0.0114808007889313,0.00450575630617031,-0.0196905224044116,-0.0274765063787619,-0.00186170228290383,0.00599747877980482,0.0131103814851623,-0.0325042557227171
127_reference,-0.042136884384006,0.0300645549861052,-0.0026938806500757,-0.0137081091418312,0.0176558025191995,-0.0221002721009144,0.0218356496544021,-0.00398929466422409,0.0079183879597639,0.0334072985279065,0.00546437412027831,-0.0164495753749561,-0.0133770397113236,-0.0152501128501163,0.035927352455941,0.0015187363886196,0.00348830708180638,0.0139933298786183,-0.0117142405268202,0.00993454452836404,-0.013349790817189,0.0183459080603471,0.00976808677106639,-0.0100257687500487,0.0137314330407014,-0.00166865180080149,-0.02636997100245,-0.0083050456147504,0.0145792309177773,-0.0258482809445584
128_reference,0.0106848537723286,0.00474322680055344,-0.0213177225678203,0.010914085639844,0.0071976000695232,0.00428256264186748,0.00313986430136891,-0.00348681025363532,-0.00977184965133776,-0.0142982029725049,0.0066738448128135,0.0248045558267315,0.0320971636443599,-0.0265816844127521,0.0032235492446641,-0.0213568406565198,0.0190865595306995,0.0237434426949856,0.0360479094459825,0.000933439449145521,0.0178742279016659,0.0077438905821251,-0.00914673413288967,-0.0375003375778255,-0.0173195313874774,0.0420287068357411,0.0374224909528103,0.0253669728654161,0.0105146243374377,0.000136183232384731
129_reference,0.0136395435396722,0.00686188101848096,0.0119209570054223,-0.017780004259395,-0.0161141755314459,-0.013957424301485,-0.0148283534768098,-0.0401677592998891,-0.00669721324116245,-0.00563676517220832,0.0188799553970092,0.0086181386857975,-0.0248312778750371,-0.0229440049395561,-0.00378226294686509,0.013480452496224,0.00184300703212113,0.0436587410075275,0.0259535802793649,0.00948328152110004,-0.00917259868445619,0.0181977447175826,-0.0248259666123593,0.0306968359231397,-0.00763250414256952,0.00670630657614068,-0.0325144171602092,0.0108314526670108,0.0112848866834565,-0.0124394993616404
130_reference,0.0224755214409059,0.0037119024258756,0.00300042899459467,0.0185685639448343,0.0320813163747767,-0.00374304960988567,-0.0530793814140319,-0.0170509717772219,0.00635210569511857,0.0123472373104755,0.0114548606725706,0.0348632730053666,0.020749091388368,-0.00544706322929208,-0.0209848705831514,0.00199095909760834,0.0151133410514647,-0.0201663607667802,-0.0347329151677438,-0.0209185557520874,0.00893717855442729,-0.0298845117221274,-0.0173488466653019,0.00660737394993982,-0.0656046719629393,0.00850529440060837,-0.00781614482715923,0.00907464041468562,0.0309237372893025,0.0530020616577433
131_reference,0.0168126158654793,0.00326333129135913,0.00685354193307244,-0.00877897997705081,0.00755412953544693,0.028052066634569,-0.0140873107481372,-0.0621653366438385,-0.0219679205378633,0.0066196926344834,0.0507160732367286,-0.00796827875144034,-0.0185223300214314,-0.0628111472006987,0.00437212464114786,0.0410222713809531,-0.0250834379538628,0.0171591195490088,-0.00476319419708975,0.00502321512700863,-0.00769749702985769,0.0203647834243283,0.00498257668239578,-0.0203035436893953,0.0150244369866109,-0.0281150448476904,-0.0200190140060477,0.00212567649038693,0.00948116533350445,0.0613905641685899
132_reference,0.0101597320840255,0.0104494703507996,0.0128059802302957,0.00281497855433521,0.0123301106998782,0.00134021129751999,-0.0188636765658396,-0.0227071200482656,0.00560351131866145,0.0488503710574289,-0.0276554923950284,0.00502188532362886,0.0361903757885061,-0.00837140332754031,-0.0316111880502549,0.000968396680054973,0.00224289051446884,-0.00904015787816891,0.0155456290980566,-0.00880914558555927,-0.0362714647460747,-0.00132578900593419,-0.0428043051271183,-0.0046772262500945,-0.028524967562537,-0.0159003090279527,0.0225481027656605,-0.0165119980189752,-0.0170785627012939,0.0213222853936258
133_reference,-0.0428899739608109,0.0305056150370203,-0.0292936085343634,-0.00383218381716003,-0.0159442335375486,-0.0336818308521833,0.000149219209721215,0.00331662223094841,-0.00287292676409108,0.0315396796115875,0.0040453453875101,-0.0292242098356097,0.0175324686630976,-0.0187681477063554,0.00309789781051546,-0.0261405017549156,-0.0115801212153684,0.0204193350694083,0.00700855422311036,0.00786127841579874,0.0438414467827727,-0.013940422042529,-0.0244672366902792,0.0104441044072233,0.009026443599601,0.00332717641138712,0.00343252763075619,-0.0116562612730025,-0.00304854984845544,-0.01086498295851
134_reference,0.0109887005171096,0.00260244613383598,0.0129832766507879,0.00142186328781117,-0.0584381927589943,0.0204372147042715,0.0269302535843579,0.0436463274728551,0.0459881170518914,-0.0207238328880862,-0.00646396020669579,-0.00699671903528024,0.0267743108059173,-0.000621437441111676,-0.00632592727928826,0.00240725481577773,-0.00183265190605913,-0.00603159572258336,-0.0444486019029182,0.0237542130327593,-0.0320695609061978,-0.00452032673306469,-0.0495936133740079,0.00392579401387415,-0.016733891862626,-0.0248743539572282,-0.0215617951715918,0.0206839056931793,0.00750512462786606,0.026575688372221
135_reference,-0.0478176426444231,0.0248981724890246,0.0130621160714627,0.0166284309629057,0.0530319993040748,0.0869949593510716,-0.0441694992597834,0.0308956863726088,0.00056731999115208,-0.0368988514446162,0.0119157523148893,-0.00817846009838317,-0.0115278276169297,-0.00300981340111122,-0.00764961034909984,-0.0287489498101376,-0.0329402476744943,-0.00595946679508249,-0.0158818964228887,-0.00787234758180834,0.00676366504854265,0.00536177250721846,-0.0133100141795011,0.0115132971311916,-0.0242422116415811,0.0363660297367481,-0.00437008100614766,0.011703597953987,-0.0203816330579038,-0.00133050844710469
136_reference,0.0130661733058998,-0.000891941317159285,-0.025730330971616,-0.0534708115990458,0.0103735996407749,0.000428160378789029,-0.00156690104873816,-0.0142361534717766,-0.0470939622012273,0.0175211481028414,-0.0172421749846449,0.00485266486222542,0.0303182014943279,-0.0538846485925816,0.0100891308364607,-0.00191273811749125,-0.0104774172084753,-0.0643556363933872,0.0158598457832428,0.0152005626071211,0.00364065262980138,-0.0104028870074198,0.00291054126157019,0.0314027977621404,-0.00590018610620746,-0.0189649473422,-0.013327977507536,0.0222373839822302,0.0153966740331221,0.0156190400578062
137_reference,0.0139835154793534,-0.00364317489469353,-0.00475683658094343,-0.0319367291205363,-0.0662747539339876,0.019776532917212,0.033034953974924,-0.0163303148913226,0.0075942318532968,-0.0217437212302169,0.027760856296787,-0.011069502398413,0.0407422487721444,-0.0744417859559054,-0.000405020087174095,0.0165863119000617,0.00359023913006542,-0.0380269545383908,-0.0365948263805723,0.0488776127405048,-0.0262385130290937,0.0324597071562845,0.0125041040523147,0.0574323522373927,0.00149299821466074,-0.0302700746772463,0.0226156329689971,-0.00240298450723464,0.0112835866791649,0.0195884831135998
138_reference,0.0177866024064253,0.00992060329087479,0.0351141244643149,-0.0124282853124343,-0.0138432615228982,0.0354756344683767,-0.00257981562533815,0.00439406362543312,-0.00152628095232024,0.026602534941034,-0.0275855853380199,-0.0495838190775165,0.00210566155570854,3.25054228050782e-05,-0.0434980189495137,-0.0153827215351161,-0.0142063148652652,0.0697185777170511,-0.00146797109191373,-0.0168437869806998,-0.0101788043835525,0.0224239650711413,-0.00232169880369856,0.00382623633967242,0.00783743103635931,0.0236232343882168,0.0152582090774939,-0.036425854186578,-0.0257439875015056,-0.00358018864859522
139_reference,-0.00826158473819846,0.0165860201238339,-0.00678483827327583,-0.0151489141621977,0.0380649368464835,0.00469701115003121,0.00236979939552916,-0.00256706522320375,-0.00569089994064407,0.0445614724815961,-0.0513246842604456,-0.0142716550076921,-0.0230501004745772,0.013250423837879,0.0259490645224219,-0.00746283075601159,-0.00306341107724589,-0.0254074585570891,-0.0256025264134109,-0.0235569743815368,-0.0412449681419055,-0.00417091918954106,0.035210755983969,0.0143202712499919,-0.0112095343543208,-0.0250996872191493,-0.0155479611064886,0.0300248380533082,0.0124157058778843,0.0379921940499392
140_reference,-0.0513049961461847,0.0253729964862408,0.0101260934288173,0.0101014902097652,0.0471516508099921,0.0426785537359772,-0.0354419280187363,0.0106882267949786,0.00812631895270666,-0.026953396164579,-0.00941241228580328,-0.00701558130335575,-0.0221595037453985,-0.0212103087393342,-0.00753707047206196,-0.0265683918000125,-0.0208945615702961,-0.0039408432218475,-0.0235562224066838,-0.000592348724967975,-0.00100905036217139,-0.0291067945585515,0.0280380434684474,-0.00574739449054251,0.0100434421330363,-0.00717547438519945,-0.0338152469869029,-0.00856714132855898,-0.0134499113809739,0.0175076011086348
141_reference,0.0110642659578309,0.00934383643007257,0.0183534589290946,0.0132972260259824,0.0295387104516317,0.0390814811076456,0.00522184246240627,-0.0141480899951419,-0.017085384046602,0.034270609449902,-0.000435173483416667,-0.0379765860237345,0.0187282171719484,0.045813874318528,-0.0283909197189818,0.0159568160671991,-0.0192874363485447,-0.0247659276219488,0.0123608198792583,0.00627805141120422,0.0104735409085787,-0.0233895930953683,0.00968753101579234,0.00601678687927574,0.0228257917768504,0.0269346453542834,-0.00356816214917397,-0.00496444956921175,-0.0221071738133092,0.00179412679446818
142_reference,0.0174682436979044,0.00626013561226483,0.0179198979743592,-0.00164904000982034,0.0185235879860003,0.0289901929965676,-0.000480128751739556,-0.00976801524080654,0.00656143751537528,0.0214782361210705,0.00369822221196425,0.0104085927726124,0.0154846181001728,0.00373878191738811,-0.02008677547646,-0.0104666442823571,0.010644976135385,0.0225681310319685,-0.00635333327452559,-0.0164970300473775,0.0263894867832961,-0.00718112382103948,-0.0430828546461269,-0.00339078237302968,-0.0331036271692484,-0.00416062493426795,0.00033562224420684,-0.0176517512562066,0.00815021733760698,0.0110697793165672
143_reference,0.0170695162674504,0.0126763383448864,0.0168966656973092,0.0214081727765793,-0.00227614311176881,0.0213652279304902,0.0119906299600946,0.00469601921869105,-0.0229507058077061,0.0450194953339742,-0.0303086991235198,-0.00944845563938149,0.00495800133469168,-0.00283180701099684,-0.0174691159542361,-0.0215175497207005,0.0100192287287456,-0.00877237973944967,-0.0262389021580209,-0.0206010347861601,-0.0204157539499157,0.0301444471055818,-0.0177685535848181,-0.0194827936125867,0.00588581093029914,-0.00910891386454087,0.0519363333661165,-0.0154485449453666,0.0629311485334345,0.0136384229933613
144_reference,0.00566390175722501,0.00240229088675264,0.00163485872719519,0.0256702941648121,-0.0343141546994427,0.000848136796067757,-0.0236887380350906,0.0164893494845497,0.0245545697799274,-0.0120182329648611,-0.0015592284931647,0.0031156822902363,0.0260400820687374,-0.0159409524179031,0.0163483465403068,0.00709292849398189,-0.018031700270266,-0.0195551710159565,-0.0352062845505037,0.032013953746052,-0.0311219923148789,0.0124044769250595,-0.0356347386972541,0.00476286898908856,-0.0308423029586337,-0.0125409545148475,-0.0228908422467038,0.0531676602035241,-0.0174237714296205,-0.0121904858488312
145_reference,-0.0181533552762236,-0.0669021006918428,0.0168512537310435,0.0174337232330231,0.0285981329964848,-0.0207295501082073,0.0123927908377457,-0.00181336862418028,-0.00741089256706434,-0.00683762703981873,0.0269594042487036,-0.015396789468318,-0.014190170138278,-0.0111088413176096,0.00244518611783043,-0.0147023324266008,0.00507415451752865,0.00104151226039188,-0.00636471776110739,-0.019776764238429,-0.003858094552421,-0.0127835127738718,-0.00174384620110224,0.0217843184332319,-0.0212784421369722,-0.00764399647451772,-0.0102374905808072,0.00294360341151628,0.00271240973468204,0.00455719580823169
146_reference,0.0220055297899233,0.00328894585595076,0.0179101958412366,-0.0456918161169948,0.0241493029102365,0.00571580712464843,0.00895726843413082,0.0101117732254418,-0.0381659950756977,0.0110036646694591,-0.0183529681292393,-0.0105400610793951,-0.0676861563861933,0.0151597310845635,-0.000434995939746225,0.00449920454899848,-0.0298051528824848,-0.00171038544639233,-0.0158704294733611,0.00210472559497243,0.0172530599308837,0.0039564670545015,-0.0388698342121276,-0.00056416275365512,-0.0235446715385371,0.016749587608781,-0.0444176897112006,0.00690613787207839,0.00764610837554361,0.0142859941185218
147_reference,0.016303082971099,-0.00371859171768577,-0.0177184066243308,-7.07494730798227e-05,0.0136081313561218,0.0113680502604532,-0.0369639566225583,-0.0195263335733322,-0.00997991721826112,0.0127431121020405,-0.00292208273321065,0.0173730695195391,0.00694254930869556,-0.00476221916742916,-0.00943028789788245,-0.0424053817309289,0.0296727599762839,-0.033966060653671,-0.0121391337101696,-0.00122952111697689,-0.0187912652283948,-0.00708989186669888,-0.0158922327768955,0.0027280280533614,-0.0105764748158361,-0.032808074595738,-0.0114595613037869,0.0251966217479952,0.0172052060946764,-0.012403606949356
148_reference,0.0206910662103671,0.00695076178858391,0.0151365646456686,-0.0306879463414655,0.0130005918703924,-0.0145516261414562,-0.00922032451272341,-0.0249950256213394,0.0131201384662044,-0.0107185171250889,-0.0066891664651112,0.0306556534382312,-0.0127819641045995,0.0242502103510788,-0.0326304259165267,-0.00281004157946559,0.0270408486416824,0.00316228630591856,-0.0468370965206131,0.0181521573462013,-0.0243527076786805,0.0270258078861465,-0.00351757802701267,-0.0231070604811726,-0.0100104993547101,0.00338140344859969,-0.0373738353697535,-0.0200925376329812,0.0249636119259431,0.00810459937036998
149_reference,0.0179833221645836,0.00618209008429382,0.0227437582035605,-0.0435071908778462,0.00472969888221629,0.0499346442855424,0.0115996007513081,-0.0136738124712285,-0.0146727820085863,0.00514584504889007,0.0139199270931346,-0.00819950994583423,0.00115908033293835,0.031458328701358,-0.0708935379789002,0.01153910358398,0.0150206161982827,0.00982463533938588,-0.0182189279082633,0.0207664161509065,0.0601980100235673,-0.00278585222360985,0.00913827675996367,0.0423199669093664,0.00709713162406595,-0.0308587992639942,0.00514991039448296,-0.0359936167005079,0.0433026743872604,0.00889081604086294
150_reference,0.0230839732288281,0.00178479962064671,0.00213614588928679,0.0172421426938545,0.0118126181671145,0.0182009195552836,-0.00998055271096234,-0.0183312646122619,-0.024986678705024,0.030392752027764,0.0229375759952364,0.0132412775786398,-0.00600207866080695,0.00235553360041402,-0.00330535746553029,-0.00624936233040976,0.0565249437833193,-0.00826516122510665,-0.0155333959561934,0.0228990109633354,0.0155845453812504,-0.00706117390076648,-0.0266358253050537,-0.0384824919112374,-0.0230414434448568,-0.0237175342092478,0.0450005821278619,-0.020804987130687,0.0137512070631796,-0.0052422844977672
151_reference,-0.0443783075423658,0.0227129564141545,-0.000642292470557861,0.00915060657106007,0.0300407896894045,0.0295146489143245,-0.0237796901979512,-0.0120267297973424,-0.0223140798292681,-0.0249252848995144,-0.0147225085984682,0.00459144884367053,-0.0287628229726787,0.0123440377595813,-0.0169370031016118,0.00193154800501741,-0.00742532869057704,-0.00556754709967508,-0.0154637407010475,0.00145361923554005,-0.0381103270757227,-0.013475366255072,0.0164785791858495,0.0174231643098174,-0.0137581976804824,-0.0116418081129566,-0.00412744458913554,0.0133230172594018,-0.0289529971842783,0.0189754478480547
152_reference,0.00956419770643269,0.0032958926191231,-0.0105183235837658,-0.00956424576350319,-0.0506863232965759,-0.0112798341474639,0.0081564711467478,0.00289402983019068,-0.0178750568159244,-0.0397296792878029,-0.000540871311490597,-0.0192109275820268,0.0252563512378204,0.0261647532968099,0.000534920763907223,-0.0206770419058594,-0.0226755279909513,-0.0267396112820224,0.0235875503937304,0.0173761840395732,0.022843363835947,-0.00102861697655578,-0.0171139902802747,0.0251961384702866,0.0253078872492318,-0.0290375651936744,0.0182897549014213,0.0346634838828298,0.0179644078976942,-0.00104415069675203
153_reference,-0.051413849097939,0.0203782310944257,0.00741553020742423,0.00696955138324297,0.0211453817118178,0.049724686624674,-0.0377825249232716,-0.00388379544539636,-0.0145061710628883,-0.0153440751776241,-0.0226422192804697,0.0111786068091079,-0.0188391144900115,0.025643941926228,0.00983511157656528,-0.012402383290193,-0.0190399582645556,0.0305119081659599,-0.0256725797347592,-0.0271473132770242,-0.027657258461774,-0.0340613099868555,0.0157296104116414,0.0156745009249249,0.0260306600396352,0.00265912874282226,-0.0368665330062015,-0.00820140610426092,-0.0221599506029689,0.0215384017646253
154_reference,0.0108043486045782,0.00231997691370871,-0.00543523554541022,0.00827401159519268,-0.0261761508234329,0.0331229653967431,-0.0101473468392792,0.0160952795040446,-0.00499534334159432,0.0160520019431643,-0.0189940046289672,-0.0243368666913167,0.0113840065922832,-0.0387693346410435,-0.00275778046184659,-0.0448272657692849,0.00820690980842094,0.0433367714473863,0.00270900532083448,-0.00260444058976045,-0.00890044096149052,-0.0513571643467081,0.0360342220068035,0.0204370690198264,0.028579595972074,0.0290032287338858,0.0127662365532354,-0.0303110931340804,0.00154281443225181,-0.00188101908052969
155_reference,-0.0503501242091014,0.0249502795745825,-0.00142630056735247,0.0110214767758799,0.0233435136172378,0.0341836222856236,-0.00617816153482768,0.016545508652875,-0.00874193599072425,-0.00826192250556587,-0.00698228940502429,-0.0118962117306736,-0.0155279301060999,0.00720882854986403,-0.0307141461296,-0.0226709078364975,0.00103921388604869,-0.0219643064272079,-0.024915384781919,-0.000475966097283541,-0.00563312144104545,-0.00902697653798666,0.000810401946584441,-0.0117892897233606,-0.000397383223893563,-0.0170586049211582,0.0131654921272428,-0.00307316883707701,-0.0102087480950702,0.00808003658881964
156_reference,0.0139722480236742,0.00779483600151808,0.0105415711950477,-0.0373119261339599,0.0112863246407681,0.0106490142463772,-0.000283882076487305,-0.0114884841216757,-0.00986362957997176,-0.000945554119762866,0.0501741950238013,0.0122985662377485,-0.00620499654196027,0.0613382934435628,0.0163569890677269,0.00985940188306164,-0.00199864008581569,0.0128479292853404,-0.0220865198612897,-0.0129668390360125,-0.00289177754205231,-0.0111435171923198,-0.0486648091680322,-0.0361298929078407,-0.0177278654450857,0.0485628244512924,0.0280960681507715,-0.00388613759622455,-0.0192312301469388,0.0153754648420525
157_reference,-0.0159100629990407,-0.0635965296911098,0.031365202585157,0.00485868011805085,0.0176244484258049,-0.0303884362732867,-0.0120277856734859,0.00283352028371665,-0.00852483794114741,0.0209159497401374,0.00347726752182949,-0.00948176216616657,0.00578329523822859,-0.00971202242192166,0.00096654538496171,-0.00846921686785003,-0.00400606489325372,0.00585950112056077,-0.00684954142441017,0.000164415874581665,-0.0186144702484917,-0.00588427073972511,0.00164993739809884,-0.0156601399596226,0.00557685186867573,0.00624052701735579,-0.0181452356592638,-0.0146078942949563,-0.0204368970682285,0.0148312440205694
158_reference,0.0209724092473644,-0.00164510667425794,-0.00443585033225539,0.00537508397559972,0.00606710324610943,0.0181006671030714,-0.0137321792117546,-0.0321925114540218,-0.00109398390698555,-0.0209212798361574,0.0104412326545825,-0.00556461530064645,0.00820872589431863,0.0339017519706929,-0.00679981330535261,0.0074492466979014,-0.00880937181527154,-0.0250676180617303,0.0343029391011269,-0.0187123867033469,0.00939469329551287,-0.02693480225885,0.0213692787131512,-0.0275062842359912,0.0251823333948524,-0.0132972074902533,-0.0269672455287646,0.0260812281614806,0.0841089833043051,0.0109332252131402
159_reference,-0.0285113360253609,0.0236054689461611,-0.011053767609042,-0.0236079430505756,-0.0107387767828873,-0.0340940144677501,0.00199266910635233,-0.0289597281189194,-0.038395502162894,0.00696379339697703,0.0160723427456784,-0.0105684649018795,-0.0250581146451737,-0.00719979260601261,-0.0145566210569808,0.0062642344741087,0.00345751248133972,0.0206841133179088,0.017112070325881,0.0351505448384746,-0.0162172523662546,-0.00400029513224128,-0.00627993039135342,-0.00348393497856317,0.00514090634232487,0.024971792980009,0.00933405739566113,-0.00957731629806615,0.00757144006576848,-0.0104076115737818
160_reference,0.00335635300044073,-0.0158887850560775,-0.0305624154056873,0.0115711731480964,-0.0631000546017989,0.0194542299622391,0.0178803445587704,0.00691890650633363,0.00486174528488586,0.0613087138071962,0.0234043661018596,0.0637337040454543,-0.0278514848679749,0.0316314820634224,-0.0234078933364627,-0.0188360046307448,-0.0372837624311555,-0.0049053627439276,0.0286712048998684,5.01686635694832e-05,0.0199190042074137,-0.0291137563441348,0.00288477268989319,-0.0136189308365244,0.0140627210808646,-0.00769351696832468,0.00655671809956141,-0.0201400564624853,-0.00741790414121979,0.00758252725899129
161_reference,0.0218267517409211,-0.00759030488404872,-0.0426381349202482,-0.0272669390671384,0.000317034229534346,0.00995156973578729,0.00603711662053665,-0.00311038619981913,-0.0524280511399024,-0.0139690207101919,0.0176291256384189,0.0157684714415676,0.0435174463001041,0.0295992186315469,0.0162794494886757,-0.0162923411263937,0.00289367600293586,-0.0281718940707838,0.00972669676323248,0.00332934870852086,0.0278214951753537,-0.00889397003381071,0.0187243588182001,0.0290854408737622,-0.0174369952088693,0.0322793412939348,0.00471130396748094,0.0397681094429507,-0.0423475124112713,0.00829848980329071
162_reference,-0.00224969854415646,-0.0061076335894051,-0.00295858859600999,0.0152904441575222,-0.0202643393006183,0.0350511998037433,-0.0254225619798845,0.00763271245664565,0.00548335182122022,0.0270724544787525,0.037615603567311,0.0557493832660845,-0.0372590536846709,-0.0126358535636334,-0.0205480311177537,-0.0121718854988056,-0.0267861497230809,-0.0035386786384727,0.0109004918379258,0.00288052289923245,0.00369433246148949,-0.001120439565784,0.0551236705944288,-0.0280601752333393,0.0235912254800553,-0.00879878203819412,-0.029549071685426,0.0509068649094187,0.0303512077814766,-0.0154557683534794
163_reference,0.00761768448253745,0.0193519838713458,0.00645790707958225,0.0234822697657447,0.0422437028823697,0.019481774952115,0.00871807739698507,-0.02181911685916,0.000643325079405825,0.0626721600675627,-0.00601309406302919,-0.0319542635007825,0.00714656930807674,-0.0155227926841496,0.00459874520472007,0.0102926298430429,-0.0276722269944165,-0.0422256573304191,0.0197577566423726,-0.0124216470574768,-0.0111820701048878,-0.00905150698799269,0.0139398553051795,0.0213962106016864,-0.0508330826211676,0.0146147523147614,-0.0146822210415835,0.0234371820849457,-0.00399639903092282,0.0320019906739301
164_reference,0.0204837394159639,0.00106086580523317,0.00702023263128493,-0.00982827753366383,0.00743103062643094,0.0152439950965233,-0.0229500280033238,-0.0116522054194114,-0.0175188123508912,0.0421196344468939,0.0175109662178419,-0.00886442627035072,0.0549912816446385,0.0160305115428125,0.0176740635205285,0.0145852795182018,-0.0107380227325386,-0.000362054891067886,-0.0173949649344755,0.0295981877972975,-0.0511784454087205,-0.00417892978572196,-0.0155964817261285,-0.0207673307896872,0.0306725709845613,-0.0234298351159969,-0.0269395337647691,0.00342275318764144,-0.00999796336144594,-0.0111802007841395
